dense/kernel:0
(784, 128)
[[ 2.23528519e-02  2.88469046e-02 -6.17502481e-02 -3.38088386e-02
  -4.06913981e-02  2.29949430e-02 -3.35268676e-04 -6.94604814e-02
  -5.80857918e-02 -7.50745460e-02  3.96379456e-02 -9.62838531e-05
  -7.21937045e-02 -2.38705575e-02  2.17309147e-02 -4.37202975e-02
  -6.62026778e-02  2.60461196e-02  7.03053400e-02 -3.90184037e-02
   1.50752515e-02  7.40449876e-03  7.39040151e-02 -5.24206981e-02
  -5.55351377e-03  5.54035679e-02 -8.01539645e-02 -7.40794763e-02
  -1.07620507e-02 -1.31423026e-03  4.35014814e-03 -4.36068214e-02
   5.05020842e-02  3.19676250e-02 -6.66258559e-02 -1.07791275e-02
  -5.73213510e-02 -5.04770130e-03  3.68668810e-02 -6.14096969e-02
  -1.62752122e-02  7.65371546e-02 -1.07433125e-02  7.52696171e-02
  -6.60507753e-02 -7.87551105e-02  1.08709484e-02  1.55905187e-02
  -6.29159212e-02 -5.79685047e-02  2.88783014e-03 -5.31217679e-02
  -7.52337426e-02 -4.60226089e-03  2.64340863e-02 -5.75042740e-02
  -7.49501437e-02  5.60805425e-02  7.27470741e-02  7.90996626e-02
  -6.80102259e-02  5.12226745e-02 -1.82829499e-02  1.57139152e-02
   6.67378232e-02  8.09134021e-02  7.64277056e-02  7.46881887e-02
   5.36626056e-02  5.95714152e-03  7.70257786e-02  6.14377037e-02
   2.39257663e-02 -4.73646820e-03 -9.53689218e-03  2.81598121e-02
   5.62782958e-02 -6.68960139e-02  7.05952197e-03 -7.75746405e-02
  -5.23658916e-02  7.17526898e-02  4.18531448e-02 -5.17733470e-02
  -1.42979249e-02  6.65078387e-02 -2.28745416e-02  3.51426378e-02
   2.52078399e-02  2.62861252e-02  4.47775200e-02 -9.78983939e-03
  -5.68627566e-03  7.43000954e-03  3.82101610e-02 -4.05045711e-02
   7.95979574e-02 -1.09556913e-02 -4.66912016e-02  7.93011114e-02
  -2.52640992e-03 -1.17774084e-02  2.50219256e-02  2.75749862e-02
  -5.40490970e-02  6.68762624e-03 -7.76957572e-02  1.14164799e-02
   7.51570091e-02  2.98923701e-02  5.05146161e-02 -6.27921373e-02
   5.30924872e-02  1.50907412e-02 -4.14103009e-02 -4.74862792e-02
  -2.28981897e-02 -4.70849313e-02 -4.46815081e-02 -3.67283225e-02
  -7.94951320e-02  3.22147831e-02 -9.21683013e-03  1.38213560e-02
  -6.21669665e-02  3.94732207e-02 -8.37189704e-03  6.39728233e-02]
 [ 1.45519748e-02  6.72440007e-02 -2.32270174e-02  6.30635843e-02
  -4.16871086e-02 -3.47409844e-02  2.09976807e-02 -3.73813026e-02
   4.90543768e-02 -7.71101937e-02 -7.53825903e-02 -1.38924196e-02
   7.72288442e-03 -1.77271292e-02  7.28155300e-02 -5.32546416e-02
   1.66032240e-02  7.60165229e-02 -3.92284580e-02 -3.19101289e-02
  -3.43890861e-02  5.13471290e-02  6.68832883e-02 -6.89943731e-02
  -5.66875376e-02 -6.63676709e-02 -2.82270722e-02 -7.67628774e-02
   5.20930067e-02 -7.57667050e-02  1.28938109e-02  3.20222750e-02
  -5.01091108e-02 -1.10988468e-02  7.12314025e-02 -2.34544575e-02
  -1.69813707e-02 -3.37151848e-02 -5.70470095e-03  4.56190035e-02
   3.53892073e-02  3.75275388e-02 -7.39199966e-02 -1.99917220e-02
  -7.75061622e-02  5.05596772e-02  1.66378245e-02  5.01575544e-02
   1.65557340e-02 -4.81774881e-02  9.39083099e-03 -1.32987946e-02
   2.26115808e-02  5.79292849e-02 -2.59428509e-02  8.09515342e-02
   5.37467673e-02 -7.96685517e-02 -4.33574915e-02 -6.68871179e-02
   5.32860234e-02 -2.37637721e-02  4.77341041e-02  6.80449829e-02
   1.62312314e-02 -7.76753947e-02 -2.42741108e-02  2.58749947e-02
   5.75327054e-02 -3.17601599e-02 -2.43120342e-02  6.90394863e-02
   2.74299458e-02  2.46294364e-02  5.39456531e-02 -5.27647249e-02
   4.73812148e-02 -1.17805451e-02  3.34287062e-02  6.51155934e-02
  -4.19275798e-02  5.64882979e-02  4.41226363e-03 -4.99224588e-02
   7.09341541e-02 -1.23664737e-02  5.82190678e-02 -6.66397661e-02
  -2.52750218e-02 -5.87629043e-02 -1.82657614e-02  6.29924461e-02
  -2.34186649e-04 -6.98678941e-03 -2.45801210e-02  3.50935981e-02
  -1.30269974e-02  4.87833247e-02 -7.11207762e-02 -6.13849275e-02
   5.42471483e-02  3.81619856e-02  4.96390387e-02  3.32341045e-02
  -6.71356320e-02 -6.03885986e-02 -5.26200980e-03  7.74730071e-02
   1.52180791e-02  8.64546001e-03 -3.21837477e-02  3.79340649e-02
   1.21582970e-02  7.69308284e-02  3.43670174e-02  2.77405977e-02
  -2.19198465e-02  1.94325522e-02  7.11061731e-02 -7.38765970e-02
  -2.65677683e-02  7.06237480e-02  5.43292537e-02  5.23418561e-02
  -5.73105216e-02 -2.94154100e-02  7.84815848e-03  5.71255460e-02]
 [-1.59177780e-02  1.72036588e-02  4.16388959e-02  5.92259392e-02
  -3.15943137e-02 -2.26382650e-02  3.08188275e-02  6.40694275e-02
   9.31380689e-03 -1.53022781e-02  6.15328327e-02 -7.53109381e-02
   6.28533214e-03  3.46861407e-02 -1.79349408e-02  7.71654174e-02
   4.51574996e-02 -6.54513463e-02 -2.59900577e-02 -4.51542139e-02
  -5.13572842e-02  4.33847606e-02 -1.71473101e-02  3.16195488e-02
  -2.82936916e-02  4.73879054e-02 -4.79243696e-02  3.83454859e-02
   2.21625268e-02  5.88234514e-03 -4.33119722e-02 -2.00786851e-02
  -1.41737163e-02  3.54688391e-02 -3.35354917e-02 -7.65445307e-02
   7.99892619e-02  1.11299679e-02 -5.24735451e-03 -1.87098049e-02
  -7.24802762e-02 -7.83506483e-02  6.94732293e-02  3.36055383e-02
  -8.55734944e-03 -7.64844865e-02  3.45794484e-02  2.48474926e-02
  -5.30959703e-02 -2.07482278e-03  1.90718472e-03  7.63568059e-02
  -3.91559377e-02 -6.43349662e-02  7.27851763e-02  3.65119874e-02
  -7.30697662e-02  2.35314444e-02  7.72387907e-02  8.17424059e-03
  -7.36274421e-02  7.36920536e-03 -7.98785686e-02  6.39566705e-02
   2.54807621e-02  4.19953987e-02 -4.62367535e-02 -7.79479295e-02
   5.78462109e-02  5.54890111e-02  3.30838263e-02  2.62408555e-02
   3.80574465e-02  4.45491746e-02  1.36004910e-02  6.95628449e-02
  -6.37439266e-02  2.83834785e-02 -2.27037258e-02 -6.24812543e-02
  -3.95218953e-02  6.25211000e-03  6.82481304e-02 -3.14277932e-02
  -2.73363106e-02  7.05748722e-02 -7.32846707e-02 -3.25870253e-02
   5.38624302e-02  3.94321680e-02 -3.77572179e-02 -8.05620253e-02
  -6.18858673e-02  3.40883359e-02  6.22610003e-03 -5.96330911e-02
   6.19814768e-02  2.37764046e-02 -4.29677963e-03  1.48538649e-02
  -4.48871329e-02  2.63626650e-02 -2.78544240e-02  2.32975855e-02
   6.68954477e-02 -1.47829279e-02  3.59305218e-02 -2.43499540e-02
  -7.41487890e-02 -2.59255059e-02 -7.64187723e-02  4.17275429e-02
   4.52494994e-02 -3.04318964e-03  9.13373381e-03  3.29450592e-02
   5.59747145e-02 -3.06870043e-03 -3.59071232e-02 -6.97086751e-02
   4.98656109e-02  5.81773743e-02  4.93649617e-02 -7.57942796e-02
   7.10336789e-02 -2.50532515e-02 -7.41863027e-02  4.33645919e-02]
 [ 8.06121454e-02 -7.98285007e-03 -5.96750900e-02  1.38176605e-02
  -6.65353760e-02  1.33202970e-02  3.80233154e-02 -9.11556929e-03
   1.70720443e-02  2.10597739e-02 -9.43581760e-03  9.15631652e-03
  -3.84722315e-02  7.36664161e-02  2.47430652e-02 -2.12032273e-02
   4.72500846e-02  5.95068187e-03  6.14921823e-02  4.04365808e-02
   3.29031274e-02  5.05487695e-02 -6.19694069e-02  9.63111222e-03
   6.50927052e-02  2.84767672e-02 -4.66152430e-02 -6.88376725e-02
  -3.75065170e-02 -6.05080128e-02 -8.03755224e-02 -6.14456832e-04
  -1.48740709e-02 -7.24485070e-02 -7.08300620e-02 -6.15027770e-02
  -4.15133722e-02 -5.32878265e-02 -2.10123956e-02 -5.72948754e-02
  -7.07572699e-03  2.52729505e-02  5.62872216e-02 -1.25807226e-02
   5.57865426e-02 -4.97180149e-02 -4.18121107e-02 -4.23359871e-02
   6.99227080e-02  6.42364547e-02  2.72861123e-03  5.25362268e-02
  -3.38810682e-02  2.76833400e-02 -8.74615461e-03  7.90952072e-02
   5.39845303e-02  6.81098178e-02 -8.63432884e-04 -7.94917047e-02
  -7.34764338e-03  9.73573327e-03 -6.67967871e-02 -5.54672331e-02
   6.88960627e-02  6.24480173e-02  6.15618154e-02  7.10176602e-02
  -2.24496014e-02 -2.14249790e-02  2.21930444e-03 -3.05307284e-02
  -6.14524633e-03 -2.62797624e-02 -7.40155801e-02  9.94468480e-03
   6.75984845e-02 -7.12823495e-02 -5.33257127e-02  6.92315623e-02
  -2.17273161e-02 -7.36695454e-02  1.66376084e-02 -5.94684258e-02
  -9.75035131e-03 -5.69339097e-03  2.12651268e-02  3.67177650e-02
   5.88713512e-02 -3.82862352e-02 -3.43072452e-02  4.09719199e-02
  -4.64698970e-02 -6.92145228e-02 -2.89934278e-02  6.00528046e-02
  -2.23010033e-02  6.81255385e-02  2.09498778e-02 -8.01257342e-02
  -5.30732870e-02 -7.90967569e-02 -3.31061445e-02  8.01740065e-02
   4.76146117e-02 -6.34264722e-02  2.89139897e-02 -5.60899079e-02
  -4.97638062e-02  4.40342799e-02  1.71587989e-02 -1.34546831e-02
  -5.73669113e-02  6.57671019e-02 -5.59729487e-02  6.94674253e-03
  -4.03525531e-02 -7.87822604e-02  6.46327212e-02 -8.28634202e-03
   5.49308136e-02 -1.48779154e-03 -4.41348366e-02 -1.08041912e-02
   7.30866864e-02  7.62277320e-02 -4.43474576e-02 -2.11789757e-02]
 [ 1.39347538e-02  5.29040620e-02 -5.47215678e-02 -3.10347602e-02
  -1.86224356e-02  7.83677027e-02  8.36478174e-03 -7.78643861e-02
  -5.13586551e-02  4.38147485e-02 -4.01681252e-02  6.90492913e-02
  -3.97452712e-03  7.57896826e-02  1.78153813e-03  7.61145577e-02
  -6.97397664e-02  7.39860013e-02 -2.17574835e-02 -4.75937016e-02
   6.32151961e-04 -7.54057541e-02  6.77974299e-02  2.07936764e-03
   6.00713119e-02  2.95500085e-02  2.20392644e-03 -4.52768579e-02
  -3.63193378e-02  3.46676558e-02  7.66130313e-02  4.78105620e-02
  -3.13961357e-02 -4.00122590e-02 -8.09063390e-02  3.48580554e-02
  -7.69053027e-02 -4.08952236e-02 -4.68832925e-02 -6.57650828e-03
   3.43355015e-02  2.97141522e-02 -5.11438251e-02 -3.34245674e-02
   3.62607986e-02  2.39576399e-02  4.26542535e-02 -6.23917952e-02
  -1.77320391e-02 -3.92086171e-02 -1.81799158e-02 -6.78796917e-02
  -7.04358146e-02  7.76877254e-03  1.26430318e-02 -2.73411646e-02
   7.60390833e-02  3.89230251e-02 -1.65168792e-02  3.12293395e-02
  -2.56476328e-02  7.92295113e-02 -3.88324261e-02  4.19097394e-03
  -7.00508654e-02 -6.33560792e-02  7.87045583e-02 -2.97506191e-02
  -8.22921842e-03 -7.94905052e-02  7.94040486e-02 -5.28934970e-02
  -5.48233092e-02 -2.19274089e-02 -1.08665973e-03 -7.26344436e-03
  -3.23996581e-02  2.51054838e-02  5.52999601e-02 -3.21910940e-02
  -5.46431318e-02 -3.58740166e-02  5.22555485e-02  5.67607209e-02
  -7.74377882e-02 -4.70926873e-02  1.01533532e-03 -3.65957394e-02
   3.30284834e-02 -1.70181096e-02 -3.80497277e-02  5.95686510e-02
   4.27645072e-02 -7.35268816e-02 -2.05351263e-02  3.90219465e-02
  -5.24285659e-02 -5.15501052e-02  3.84736806e-02  2.82082558e-02
  -6.82172030e-02 -6.14786595e-02  6.62774369e-02 -6.92266077e-02
   3.27883586e-02 -7.68085197e-02  7.62391463e-02 -6.56164736e-02
  -4.68212925e-02 -2.75508314e-02  6.72463104e-02 -4.32771407e-02
   3.54774818e-02  6.95957169e-02  6.96952865e-02 -4.69950475e-02
   3.05763111e-02  2.12419778e-03  7.29940906e-02 -7.91855827e-02
  -7.97608569e-02 -4.43739705e-02  5.68077639e-02 -1.78209171e-02
   3.23298275e-02 -3.17802131e-02  3.90618593e-02 -3.25092301e-02]
 [-7.49880672e-02  1.05815306e-02 -1.54150650e-02 -1.32118911e-03
  -5.44304699e-02  7.21140280e-02  7.59598240e-02 -7.60798678e-02
  -1.18406862e-02 -1.16592944e-02 -1.06017366e-02 -7.62867332e-02
  -7.83947185e-02 -7.94608817e-02  5.57945594e-02 -5.05179837e-02
  -3.39932702e-02 -5.70811704e-02  1.81422383e-03 -6.70752376e-02
   1.54910386e-02 -4.58812006e-02 -4.46923003e-02  2.74057388e-02
  -3.95947061e-02  4.09069806e-02 -7.58448243e-03 -1.23559907e-02
  -7.86177143e-02  1.38027892e-02  9.90223140e-03 -4.88962978e-03
   5.66074923e-02  2.72949859e-02  4.68130484e-02 -4.73471023e-02
   5.96922860e-02  2.49961019e-03 -4.24596369e-02  4.26050201e-02
   6.56352714e-02 -1.14850178e-02  6.08741269e-02 -2.63728015e-02
   5.70474043e-02 -1.79407224e-02  8.03702697e-02  8.57809931e-03
   1.74324363e-02 -2.94257179e-02  8.10638294e-02  4.25040722e-02
   1.26899630e-02 -7.77555555e-02  6.91239759e-02 -3.95697579e-02
  -1.39946416e-02 -1.67185441e-02 -3.98808941e-02 -5.56653142e-02
  -5.24174497e-02 -4.66143154e-02 -1.14515424e-05  7.68100843e-02
   7.87141249e-02  7.17514679e-02 -1.50196701e-02 -2.09350884e-03
   7.13283569e-03  7.97409937e-02 -6.89891726e-03  4.34395671e-02
  -7.21491873e-04 -4.56241928e-02 -9.33490694e-03 -7.45505169e-02
   2.75607705e-02  3.26112360e-02  8.98186862e-03  4.48795184e-02
  -4.55630273e-02 -1.45696476e-02  5.02233580e-02 -4.84570786e-02
  -4.74489368e-02  7.56446794e-02 -5.62146306e-04 -3.93359214e-02
  -2.53830254e-02 -6.82736561e-02  6.71746358e-02  6.31403178e-03
   5.83145991e-02  1.57191008e-02 -6.09172136e-03 -3.22408229e-03
  -1.50282383e-02 -6.33100718e-02  2.34774500e-03  7.74075165e-02
  -2.48037465e-02 -6.82266057e-02  6.47455454e-05  3.29485983e-02
   3.02545354e-02 -1.36779025e-02  7.82674327e-02  4.22848389e-02
   1.12710595e-02  1.60401687e-02 -2.50341073e-02  4.05430943e-02
   6.49409667e-02 -2.62409896e-02 -2.01916397e-02  2.41975114e-02
   3.75388116e-02  6.37037680e-02 -5.32026030e-02 -5.77204376e-02
   7.66038969e-02  2.50600576e-02  7.43984208e-02  2.57663429e-03
  -3.11899893e-02 -6.85451478e-02  5.74959740e-02  4.56627682e-02]
 [ 4.23072502e-02  4.59355190e-02  1.51379853e-02 -5.00743836e-02
   6.89283684e-02  4.08347175e-02 -6.29867390e-02  5.13523743e-02
  -1.85782835e-02 -3.58611383e-02 -5.36919758e-02  2.91207880e-02
   1.24646723e-03  4.40181717e-02  4.24272791e-02  6.40796795e-02
   6.66844323e-02  2.01918557e-02  6.39232993e-03  5.37733361e-02
  -7.24664330e-02 -3.53835002e-02  4.79212403e-03 -4.08938713e-02
   2.38510892e-02 -7.34701306e-02  1.39140636e-02  2.48505846e-02
  -4.00653407e-02  5.61856255e-02  7.92805776e-02 -4.11209427e-02
  -2.00718418e-02 -7.02166110e-02 -3.36824842e-02  7.29969367e-02
  -6.52328432e-02 -6.72462881e-02  5.04679903e-02 -5.67185171e-02
   6.84539303e-02  3.82757187e-03 -1.32329687e-02 -2.81042531e-02
  -5.96792102e-02  2.84980759e-02  6.08801916e-02 -1.82794333e-02
   4.40485701e-02  2.71147117e-02 -2.83485949e-02  4.22746837e-02
   5.41412085e-03  6.50488213e-02 -3.56008820e-02  4.87959310e-02
  -6.56809658e-02 -4.53506522e-02  2.01052427e-03 -5.20539843e-02
   6.14603087e-02 -7.18377009e-02  5.59722111e-02 -7.21714422e-02
   7.64415488e-02 -1.44509673e-02  5.08251712e-02  1.02615952e-02
  -3.08828987e-02  5.37473783e-02  7.85821751e-02  5.21338657e-02
   5.95861301e-02 -1.00988075e-02 -5.03327623e-02  5.98431304e-02
  -6.98289722e-02 -3.93311679e-03  2.26020068e-03 -3.54092568e-02
   4.53416631e-02 -2.04653293e-03  6.99335709e-02  2.94890106e-02
  -1.78955495e-02 -4.52723540e-02 -3.41248661e-02  5.12636676e-02
   5.43633774e-02  3.25859413e-02  5.91851994e-02  3.42950225e-02
  -6.06720001e-02 -4.36756089e-02 -5.81802614e-02 -4.56233807e-02
  -1.00922585e-03  3.36001068e-03 -4.48761098e-02  7.32536614e-03
  -6.82964548e-02 -5.01809269e-03  3.82387042e-02 -9.06312466e-03
   4.77259383e-02  2.32759863e-02 -1.36139095e-02 -7.39220977e-02
  -6.48050383e-02  6.92023411e-02  7.88562074e-02  7.54688159e-02
   3.47651765e-02  6.70973212e-03  2.82100514e-02  6.53585270e-02
  -4.17147428e-02 -3.71013209e-02  1.63980275e-02 -2.86627263e-02
   7.57901296e-02  7.63072148e-02  4.38442752e-02 -4.44628298e-04
   5.58374003e-02  7.03208670e-02  2.71367580e-02 -9.67618823e-03]
 [ 4.11192775e-02  8.77210498e-03  5.15046045e-02  5.66278473e-02
  -8.87444615e-03  9.68446583e-03 -1.01921558e-02 -7.25539327e-02
  -6.20241165e-02  4.97643724e-02  3.73767391e-02 -3.29588242e-02
   3.31730768e-02 -7.71195516e-02 -1.44403949e-02  4.08678576e-02
   6.68349788e-02  3.39246765e-02 -3.51586156e-02  7.53759518e-02
  -8.47937912e-03 -6.30076826e-02 -6.70617595e-02  6.26759455e-02
   1.19749159e-02  5.47368899e-02 -3.39841992e-02  4.67332825e-02
  -5.22157699e-02 -2.62088701e-02 -1.75149515e-02  3.53747606e-02
  -4.91411351e-02 -7.95819759e-02 -5.00534549e-02  7.49519840e-02
   5.64754680e-02  7.27263913e-02 -3.63830179e-02  1.69223472e-02
   1.85011998e-02  7.60441944e-02 -2.47831717e-02  5.28832152e-02
   2.48765796e-02 -5.25485724e-03  7.72348866e-02 -6.17053621e-02
  -2.55384110e-02  4.65640500e-02 -7.28496760e-02 -7.32342377e-02
  -5.14678806e-02  6.20326400e-03  4.39069346e-02 -3.63411717e-02
  -2.35476308e-02 -2.74742916e-02 -1.25727952e-02  3.74915674e-02
  -6.56416938e-02 -3.62927280e-02  7.94133022e-02  3.24808061e-03
   5.53604141e-02  5.28512374e-02 -5.01383543e-02 -6.28857538e-02
  -9.92992520e-03 -5.14306128e-03 -6.81672543e-02 -3.60690989e-02
   6.01106808e-02 -3.09489965e-02 -4.01463509e-02  6.55871630e-03
   6.17429540e-02 -2.98817717e-02 -5.57517782e-02  7.13934377e-02
  -7.61095360e-02 -1.24451071e-02  6.97517321e-02  2.66746432e-03
  -2.23785713e-02 -3.46254595e-02  3.46335620e-02 -8.08780864e-02
   5.96307963e-03 -3.00460123e-02  7.93831572e-02 -2.30002962e-02
   4.45938632e-02  5.68922684e-02  5.93607500e-02 -3.15829366e-03
   6.05009571e-02 -3.90017033e-03  2.68042386e-02  7.30603188e-03
  -5.73576875e-02  5.09332940e-02 -2.68016644e-02 -2.47498527e-02
   5.62109053e-04  5.53748012e-03  4.79407534e-02  1.90512985e-02
  -5.16363531e-02 -5.46938553e-02  6.55325428e-02 -6.90427944e-02
   8.44327360e-03  1.22858956e-02  2.65204310e-02  1.86353698e-02
  -7.02609941e-02  4.30016667e-02 -6.96726814e-02  1.53884888e-02
  -2.15030275e-02 -1.46942809e-02 -4.86006476e-02 -7.93901011e-02
  -3.55338156e-02 -6.58097044e-02  7.63827041e-02  5.44172451e-02]
 [ 1.56511664e-02  3.79355177e-02 -4.44694832e-02 -5.51568940e-02
  -3.90104949e-02 -6.39737844e-02 -3.10672484e-02 -5.07213250e-02
  -7.93361291e-02  6.78022578e-02  2.26593614e-02 -5.68182468e-02
   4.60325554e-02  7.96685144e-02  1.23512372e-02  3.06263193e-02
  -1.65698305e-02 -1.97789632e-02 -5.78652993e-02  6.25865683e-02
  -6.61395937e-02 -4.40081693e-02  2.58631185e-02 -5.32766432e-03
   4.51590344e-02 -2.25911178e-02  6.68710098e-02  5.40858433e-02
  -7.54504055e-02 -4.44942750e-02  7.59928301e-02 -6.16077408e-02
   1.53235495e-02  3.57470587e-02  4.17073071e-03  5.49707487e-02
  -3.85750532e-02 -1.39094815e-02  6.72293231e-02 -8.05041939e-03
  -7.47048110e-03  2.79178321e-02  8.34633410e-03 -3.54417078e-02
   8.52484256e-03 -2.77662799e-02  6.74018785e-02 -7.68228620e-02
  -5.71860410e-02  5.50594181e-03  1.40312687e-02  5.41342795e-03
  -2.93297209e-02  3.63414213e-02  5.19027784e-02  3.76666412e-02
  -6.08989000e-02 -1.98744535e-02  2.20403820e-02 -2.98838317e-03
   7.05370829e-02  3.52558643e-02 -4.12580110e-02 -6.74652159e-02
   3.99611667e-02 -2.32230537e-02 -6.25954866e-02  2.88761407e-03
  -4.39669006e-02 -2.44727917e-02 -5.58642298e-02 -7.21223205e-02
  -7.44512007e-02  3.85575742e-02 -7.86942318e-02 -7.52251744e-02
  -4.99226339e-02  7.39751831e-02 -4.70892228e-02  6.25728741e-02
   3.44386920e-02  7.42039308e-02 -4.60002273e-02  2.77844742e-02
   6.53231665e-02  8.42034072e-03 -2.60934383e-02  5.33878058e-03
  -6.62031025e-03  4.25870568e-02  2.55260915e-02 -7.39715248e-03
   2.87734196e-02  6.24051616e-02  2.25862861e-02  5.35050035e-03
  -4.06263024e-03 -4.95921411e-02  1.85114145e-03 -3.31399105e-02
  -6.60980344e-02 -6.85644224e-02  8.02537799e-03  4.65414152e-02
  -6.87475204e-02  2.14631557e-02  6.50970265e-02  7.29872286e-03
   7.34790489e-02 -3.74888591e-02 -1.70254707e-03 -4.68521751e-02
   1.99784935e-02  2.76482776e-02 -4.08586934e-02  6.43553510e-02
  -3.10992450e-03 -5.76182455e-03 -6.47374168e-02 -3.58301550e-02
   1.95419118e-02 -9.02543962e-03  2.25474164e-02  2.85560563e-02
  -2.75601707e-02  2.13548616e-02  4.47053537e-02 -3.14704329e-02]
 [-2.24229135e-02 -2.69642249e-02  2.81393304e-02 -3.41659226e-02
  -3.39102298e-02  7.12115839e-02 -7.60870650e-02  4.06487286e-03
  -7.35676512e-02  5.30871525e-02 -5.21782711e-02 -2.97981910e-02
  -6.02661669e-02 -6.17808998e-02 -6.02824315e-02  7.50434175e-02
   8.13968480e-03  6.38512596e-02 -4.41093259e-02  6.38858452e-02
  -7.22843409e-02 -7.46922493e-02 -1.87111013e-02 -6.65999278e-02
  -6.87662363e-02 -1.62114128e-02  2.68100947e-02  6.98708668e-02
   1.82387829e-02  2.14635804e-02  2.39425972e-02  4.60275933e-02
  -4.96599413e-02 -4.99298461e-02 -7.96408802e-02 -2.02856958e-03
   2.06993669e-02  3.23892757e-02  2.35687643e-02 -6.16158843e-02
  -7.19819069e-02  4.86707315e-02 -3.38087827e-02 -5.63165545e-02
   8.05267170e-02  9.94244218e-03 -5.79232723e-02  5.97858205e-02
   6.30949512e-02 -4.92537394e-02 -1.11959055e-02 -7.25570917e-02
  -6.34195656e-03 -4.85512763e-02 -6.42961338e-02  4.61568460e-02
  -1.38121471e-02 -7.39631951e-02  1.32800713e-02 -7.39038289e-02
   1.62350088e-02  1.06006339e-02  3.17238048e-02 -1.38487741e-02
   1.01454332e-02 -4.67176177e-02 -3.51029783e-02 -6.09777421e-02
   4.26943228e-02 -1.01807043e-02 -7.22761601e-02 -8.02506581e-02
   3.77059504e-02  5.84942177e-02  4.68379632e-02  6.82257488e-02
   7.42461011e-02 -5.98958395e-02  6.67567030e-02 -3.61954570e-02
  -4.21901755e-02  7.40428045e-02 -3.19751352e-03  5.39133176e-02
  -7.82967359e-02  7.70967528e-02  4.42717224e-03  5.65614477e-02
  -4.45535108e-02  3.15204263e-03  6.92850277e-02  4.65941653e-02
   4.31847572e-03  7.84618407e-03  1.36817470e-02 -4.81571034e-02
  -7.26383179e-03  7.38509968e-02 -2.53293440e-02 -2.64949016e-02
  -4.70126644e-02 -3.93019430e-02 -7.00947642e-02 -1.10054240e-02
  -5.21596521e-03  2.29363889e-03 -6.59045205e-02  7.39130899e-02
  -9.89821553e-03  3.97965163e-02 -2.36853771e-02  6.28630072e-03
  -2.13459134e-05 -2.61981152e-02  5.00739589e-02  3.28314453e-02
   5.60355112e-02 -6.02375865e-02  6.04986921e-02 -7.35666081e-02
  -7.31960684e-02 -4.21619602e-02 -4.20908928e-02 -3.09553966e-02
   3.15118730e-02  1.76846981e-03  6.19966537e-03 -3.85910682e-02]
 [-1.27097517e-02  5.01816049e-02 -6.46230653e-02  7.42416158e-02
  -7.94590041e-02  7.42272213e-02 -7.45318383e-02  7.73628429e-02
   2.48694569e-02  4.99537587e-03 -1.61436498e-02 -8.03273171e-02
  -4.28286083e-02 -3.41698080e-02  7.99227133e-02  1.26073733e-02
  -6.24120831e-02 -7.19649494e-02  4.84760180e-02 -3.99301201e-03
  -9.53821093e-03 -2.77360529e-02 -9.66148823e-03  2.32690573e-02
   2.06754282e-02  5.52944094e-03 -3.37528959e-02 -7.14834854e-02
   6.97512105e-02  6.86125979e-02  7.35349730e-02 -1.48229599e-02
  -7.83918425e-02  5.79629019e-02  2.87256166e-02  3.52975577e-02
   5.34954593e-02 -7.21801817e-02  1.75752491e-02  2.84601375e-02
   4.27631661e-02  3.75493541e-02 -4.34395634e-02  6.04797974e-02
   2.66534165e-02  6.56069592e-02  4.99451980e-02  2.88095251e-02
  -1.47090033e-02  3.91008854e-02  5.45547679e-02  7.49356374e-02
  -1.54763833e-02 -5.76418638e-02  3.87239605e-02  6.14202395e-02
   5.65912202e-02 -5.50010428e-02 -5.82819432e-03 -3.50832529e-02
   2.65923664e-02 -4.96791266e-02 -8.36056471e-03 -3.05682644e-02
   3.59537899e-02  7.23534003e-02  6.83460608e-02  1.52668133e-02
   6.85082600e-02  1.49866417e-02  1.40272304e-02 -4.14154269e-02
  -1.23741925e-02 -4.61878069e-02  3.54830325e-02 -1.26431882e-02
  -4.40715589e-02 -1.24609843e-02  7.18595758e-02 -5.11648282e-02
  -2.91818827e-02  4.02953476e-02  2.81847790e-02 -1.42327398e-02
  -1.67302042e-02 -2.67081857e-02  7.80677795e-03  1.57383755e-02
   8.28620791e-03 -7.47465119e-02  6.78457543e-02  2.60388106e-02
  -3.07178274e-02 -6.03517592e-02  5.89893386e-02 -7.10605979e-02
   2.18676105e-02  7.21582994e-02 -5.38088977e-02  2.40606964e-02
  -3.20225805e-02  5.90242967e-02  6.37008175e-02  3.58674824e-02
  -4.74795699e-03 -4.72990647e-02 -8.04931968e-02 -4.01145369e-02
   1.31424069e-02  1.94778815e-02 -2.32017264e-02 -6.20722882e-02
  -5.23546189e-02 -2.72653401e-02 -5.57752550e-02 -4.49033082e-03
   3.58087271e-02  1.01632252e-02  2.59941369e-02 -7.83790946e-02
   2.44584233e-02 -3.51105779e-02  3.90177444e-02 -2.75775753e-02
   3.91633436e-02  1.77065134e-02  1.99980438e-02 -3.81707400e-03]
 [ 6.94753900e-02 -2.65479274e-02 -4.27814238e-02 -6.29975870e-02
  -1.32182688e-02  6.56227544e-02  6.21904656e-02  1.91401243e-02
  -2.23764442e-02  3.92661840e-02  6.63710758e-02  2.60073245e-02
   1.44223869e-02  5.64745292e-02 -7.64554590e-02 -2.49729976e-02
  -1.16964206e-02  3.25835273e-02 -6.12987727e-02 -4.11069207e-02
  -5.12068719e-03  1.82987005e-03 -6.19296655e-02  2.87818089e-02
  -3.58550660e-02  6.54753074e-02  4.63334695e-02  2.69924179e-02
   6.10244945e-02 -4.96551059e-02 -4.32273000e-03  4.41728607e-02
   5.37646487e-02 -5.80282621e-02  6.77771047e-02  7.39035681e-02
  -2.57459283e-02 -6.18539378e-02  9.43500549e-03 -5.21802455e-02
  -3.11926380e-02  6.76538795e-03  4.90481183e-02 -3.09786014e-02
  -2.79157460e-02 -6.56124949e-03  4.62825522e-02  3.05361822e-02
  -6.44393712e-02 -7.39400685e-02  3.57892364e-02 -1.90610066e-02
  -5.34229614e-02 -7.51698837e-02 -5.56366742e-02  4.58261371e-03
   6.55310377e-02  4.62832376e-02  3.70339453e-02 -2.38061436e-02
   2.67402083e-02  5.12236878e-02  5.44779822e-02  2.86221132e-02
  -5.23347966e-02  2.03734562e-02 -6.95314258e-03  6.05613068e-02
   1.45093873e-02 -4.61325049e-03 -1.15376338e-02 -4.22855504e-02
  -9.95483249e-03 -6.19182363e-02  6.97265342e-02  2.08165571e-02
  -3.60193998e-02 -8.04965645e-02  1.99504346e-02 -1.21225193e-02
  -7.23460913e-02 -5.97449020e-02 -2.75319964e-02 -6.36823773e-02
   3.57579440e-02 -6.31280988e-02  8.10923800e-02 -6.86317980e-02
   4.29609790e-02  5.94327822e-02  9.60916281e-03 -3.44057754e-02
   4.07694504e-02  2.82537043e-02 -6.67667985e-02 -2.61996239e-02
   6.09198958e-03  7.49951825e-02 -7.27115422e-02 -4.18996364e-02
  -7.19101876e-02  3.76725569e-02  6.18821308e-02 -6.19459897e-03
  -1.48590654e-02  4.54592779e-02 -3.14825401e-02 -1.03834867e-02
  -7.43294060e-02  3.48000824e-02  5.65916821e-02  3.38700414e-03
   1.26631632e-02  1.40375346e-02 -7.17778876e-02  5.20875826e-02
  -3.35605741e-02  3.45125198e-02  6.40265122e-02 -3.23926769e-02
   6.12841919e-02  3.30346823e-03 -1.31262392e-02 -5.51100373e-02
  -4.05495726e-02 -9.56591964e-03  7.26211071e-03  5.06266579e-02]
 [-3.54757681e-02  1.37761720e-02  1.15936078e-01  1.86244473e-02
  -4.95814392e-03 -6.25680611e-02  1.38052419e-01 -3.39524262e-02
   8.17190036e-02 -7.96823800e-02 -4.26547788e-02 -4.58358303e-02
  -7.37914070e-02 -1.15044013e-01 -2.13889591e-02 -4.38491628e-02
   1.37198977e-02  6.41041771e-02  8.72301608e-02  9.32513773e-02
   1.97839476e-02  9.26333219e-02  4.76940582e-03  3.53412628e-02
  -6.70625735e-03  7.24620149e-02 -3.94390002e-02 -2.56326087e-02
   2.68208757e-02  2.06846390e-02 -2.17113458e-02  7.98461363e-02
   4.99436781e-02  3.52339223e-02  4.70326729e-02  1.43450955e-02
  -1.19767971e-01 -3.52216773e-02  2.14771554e-02  3.10105085e-03
  -1.64945442e-02 -2.82516629e-02  7.94500932e-02 -3.37161608e-02
  -6.18422553e-02  8.32695514e-03 -1.09037749e-01 -2.83936057e-02
   9.32783931e-02 -1.74590126e-02  1.88752338e-02 -3.14066224e-02
  -5.65055683e-02 -9.31365937e-02  6.55982718e-02 -6.93211406e-02
  -7.16164932e-02  1.83645990e-02 -1.09736491e-02  9.88926366e-03
   8.86785239e-02 -1.59758739e-02  5.75957121e-03 -6.69728220e-02
  -5.29316552e-02 -1.78948957e-02  1.00066587e-01  1.52287642e-02
  -9.85903889e-02  6.27421141e-02 -8.94858018e-02 -4.65908973e-03
  -1.32035092e-02 -6.49180934e-02 -1.00685462e-01  4.43070084e-02
   7.45368600e-02  5.40977642e-02 -4.46598232e-02 -8.00737143e-02
   1.79899242e-02  6.75377995e-03 -6.05470650e-02  7.14289844e-02
   4.94804345e-02 -3.31424847e-02  2.88190059e-02  4.24461588e-02
   4.78604017e-03  1.11805864e-01  1.04282729e-01  7.95508549e-02
  -9.36637633e-03  4.49720435e-02 -3.70044149e-02  3.76372598e-02
  -7.83166382e-03 -4.98970859e-02 -4.18385454e-02  9.42030400e-02
   1.38159379e-01 -1.83822196e-02  3.49560827e-02 -2.33244374e-02
  -2.07289569e-02  3.78250256e-02 -3.71395350e-02  7.34750032e-02
   6.67561516e-02  4.54642549e-02  6.66584494e-03 -7.38778263e-02
  -4.80774939e-02 -3.91730182e-02  1.91085432e-02 -1.00667819e-01
   4.29692166e-03 -5.81068397e-02 -3.40320356e-02 -5.32675534e-03
  -2.49769464e-02 -9.30012390e-02 -1.02740929e-01 -6.72016963e-02
   6.67263046e-02 -4.52612899e-02  7.54054682e-03  3.50626535e-03]
 [ 1.42049938e-01  9.88985226e-02  2.28491314e-02  3.88489813e-02
   2.06413642e-02 -6.62345067e-02  2.71764956e-02  4.23962027e-02
   1.14209399e-01 -3.71712297e-02 -7.40046948e-02  4.14848104e-02
   5.13636135e-02 -8.20853189e-03 -1.32224917e-01 -2.88654007e-02
  -4.43423800e-02 -7.60063455e-02  5.01003116e-02  7.18558729e-02
   6.32181615e-02  3.83938812e-02 -4.63119633e-02 -6.29380047e-02
   6.15668632e-02  3.07790190e-03  2.17491388e-02  4.86392900e-02
  -1.54734822e-02 -9.90874022e-02  5.53216487e-02  9.37968194e-02
   6.96510300e-02  5.17141782e-02 -2.19155215e-02  5.76122757e-03
   6.93338318e-03  5.51614091e-02  3.12310085e-02  2.15116963e-02
   7.23971426e-02  7.53026456e-03  2.50692666e-02 -1.06680751e-01
   2.11961009e-02  6.67575374e-02  3.97451315e-03  1.01054952e-01
   2.23293602e-02  7.90828690e-02 -2.50714645e-02 -4.04306948e-02
   8.32615420e-02 -1.14676384e-02  4.71372120e-02 -1.53267169e-02
  -1.48087010e-01  1.70432720e-02 -7.65921772e-02 -7.57108629e-02
   1.66550472e-01 -8.88083428e-02  1.44965835e-02 -6.25928938e-02
   1.57214813e-02  2.47638095e-02  1.75848044e-02 -8.32563173e-03
  -2.90296562e-02  3.66290994e-02 -1.24693289e-01  1.14899855e-02
   9.10226107e-02 -1.32649168e-02 -4.37820330e-02 -2.03417279e-02
   5.13119809e-02  8.10856223e-02  7.33909383e-02 -3.17149097e-03
  -1.03322238e-01  5.26376404e-02 -8.62153713e-03  7.44407699e-02
   2.77507193e-02 -4.73784059e-02  4.12843078e-02 -4.62548137e-02
   3.75778638e-02  3.70765775e-02  7.08790049e-02  1.08057484e-01
  -2.91073974e-02  2.76860297e-02  3.61046940e-02 -2.11432446e-02
  -1.21435203e-01 -4.01849709e-02  7.68856034e-02  1.11522479e-02
   1.29065514e-01 -5.07402308e-02  2.11661942e-02  6.10575899e-02
   1.25528798e-02 -8.73853564e-02 -9.49312896e-02  9.70113501e-02
   5.46925254e-02  6.78544566e-02 -8.39217380e-03 -9.81131047e-02
   1.01252273e-01 -3.21238264e-02  8.59916862e-03  1.16230315e-02
  -1.69012211e-02  6.26893565e-02  3.10264397e-02  9.97769088e-03
  -2.80694920e-03 -4.81473878e-02 -4.81392257e-02 -6.72347248e-02
   5.63074872e-02 -4.35571820e-02 -3.80835868e-02 -1.29763521e-02]
 [ 1.18124880e-01  2.36735232e-02  6.68898299e-02 -4.67964634e-02
   2.87882444e-02  3.23689878e-02  7.24598812e-03 -5.91156930e-02
   5.86441904e-02 -6.65469170e-02  6.19872734e-02 -2.76676156e-02
   2.99920365e-02 -3.66227888e-02 -1.74371507e-02  2.28898004e-02
   3.51469330e-02  5.24654463e-02  2.74435207e-02  1.06816374e-01
   3.17978710e-02  1.12942019e-02 -3.78555059e-02 -1.77794173e-02
  -7.73435459e-02  1.78714842e-03  1.67922974e-02  6.13323227e-02
  -3.75595950e-02  1.83048826e-02  1.01034172e-01  7.70381317e-02
  -3.81578505e-02  1.20704807e-02 -3.50582562e-02  6.82579428e-02
  -4.89677414e-02 -4.72393185e-02 -5.23723327e-02 -6.97796047e-02
  -5.25067337e-02 -4.17538099e-02  8.01037624e-02 -1.46603703e-01
   1.96286328e-02  2.12807953e-03  1.06850922e-01 -3.71907428e-02
   1.74550414e-02 -2.50061620e-02  5.69073372e-02  1.63901672e-02
   6.78577498e-02 -4.83599827e-02  8.00683796e-02 -6.76695630e-02
  -1.37756586e-01  5.95134124e-02  5.23015484e-02  2.26325244e-02
   6.92208158e-03 -8.57897177e-02 -1.35603333e-02  7.06504658e-02
   3.43192816e-02  2.73208208e-02 -7.94756711e-02 -1.37380203e-02
   2.09841393e-02 -7.33842142e-04  4.12368178e-02 -9.43104364e-03
  -1.00031175e-01 -5.40459640e-02 -2.69473605e-02 -1.08138084e-01
   1.08110078e-01 -1.77031402e-02  1.04633451e-01  9.74496733e-03
  -2.17465907e-02  3.32637168e-02  6.39555231e-02 -4.53597791e-02
  -6.20220862e-02  9.91240516e-03 -6.29505366e-02  7.20350072e-02
  -2.77926307e-02  1.30513147e-01  6.63948283e-02 -9.16645513e-04
   3.85633446e-02 -1.30935460e-01  3.61782610e-02  3.13442238e-02
  -3.78570557e-02  6.99968114e-02 -3.65520567e-02 -5.72835654e-02
  -8.62971023e-02 -5.72797060e-02 -4.04302292e-02  8.44090283e-02
  -5.26100397e-04 -3.08574084e-02 -9.86549333e-02  1.54437462e-03
   3.72456647e-02  3.64365168e-02  4.39171270e-02 -1.07301027e-01
   6.11691140e-02  1.14504248e-03  6.91829249e-02 -5.16616292e-02
   1.05949454e-02  1.00749815e-02 -1.13244757e-01 -4.62766103e-02
   4.13537286e-02 -5.99987954e-02 -6.74000084e-02  2.89826766e-02
  -3.42612006e-02 -4.42113951e-02 -7.15918392e-02  5.22664050e-03]
 [ 2.86924671e-02 -6.97469264e-02 -1.38666257e-02  3.49707454e-02
   2.18813010e-02  2.80347541e-02  7.38692135e-02  2.88828909e-02
  -5.18187135e-02  4.27069515e-02  6.21303543e-02  3.06075960e-02
   1.52953789e-02  5.96112348e-02  4.08671834e-02 -7.08651990e-02
  -3.56865227e-02  7.23211393e-02  5.18349931e-02 -5.00534773e-02
  -4.68546301e-02  4.03430611e-02  1.50010223e-03 -3.32322121e-02
   6.37177899e-02 -4.51272763e-02  2.33894698e-02 -3.06901522e-02
  -5.06538860e-02  6.17152788e-02  8.32693372e-03 -6.50283694e-02
  -5.85006997e-02  5.63274547e-02 -3.36289033e-02  7.49448910e-02
   7.99077302e-02 -2.59911045e-02  4.04644012e-03 -2.69405730e-02
   5.58662303e-02  6.13294840e-02  2.66640335e-02 -2.32617743e-02
   1.99604705e-02  2.07542107e-02  2.06847256e-03 -6.23304322e-02
  -4.58348542e-03  5.11612557e-02  5.32670319e-02  5.70013151e-02
  -2.24821717e-02 -4.30787317e-02 -1.05790757e-02  3.54072154e-02
  -7.75169954e-02 -5.75747862e-02  7.87595063e-02  4.54372652e-02
   4.85105664e-02  1.46314141e-03  7.35747069e-02 -6.52774945e-02
   6.14571609e-02 -3.01367398e-02  3.50030214e-02 -7.90650174e-02
  -2.16900464e-03 -6.83485493e-02  3.36188823e-02 -4.51347977e-02
   1.95295177e-02  4.87251058e-02  4.50152680e-02 -6.70495629e-02
   1.73805710e-02 -4.69261892e-02  2.62611434e-02  7.95731694e-02
   2.90386584e-02  9.32692513e-02 -6.99571520e-02  4.40368280e-02
   7.67157152e-02 -2.67719273e-02  6.55671284e-02  6.47498146e-02
  -2.48170178e-02  2.73198597e-02  4.64145280e-02  6.76209033e-02
  -6.08006455e-02 -7.80084878e-02  2.40158532e-02 -6.08031824e-02
   5.00733368e-02 -7.79472739e-02  4.02302369e-02 -4.58794981e-02
  -7.59729147e-02 -1.01474812e-03  7.98289701e-02 -6.53548017e-02
  -4.68533747e-02 -6.94798157e-02  4.29701880e-02  3.49888057e-02
  -1.22849969e-02  8.26570243e-02 -3.03047542e-02 -1.27502894e-02
  -6.75357357e-02 -3.40814330e-02 -2.56053396e-02 -7.31384307e-02
  -8.81813839e-03  1.60306320e-02  5.72416410e-02  7.40754977e-02
  -5.69159873e-02 -3.95621769e-02 -5.39253801e-02 -5.50355837e-02
   6.82302192e-02  3.12803760e-02 -6.59422576e-03  1.03461549e-01]
 [ 2.60633677e-02  3.45728546e-02 -1.59728006e-02  5.17165437e-02
  -3.76138426e-02 -6.34673685e-02 -4.41705324e-02 -2.00113319e-02
   3.59377712e-02 -4.70743738e-02 -5.14997318e-02  1.94195807e-02
  -2.83589996e-02  3.43706533e-02 -1.31738856e-02  3.35422605e-02
   3.25841457e-02 -7.57657737e-02 -7.12252185e-02 -7.17680082e-02
   6.72349706e-02  8.08656737e-02 -7.31769204e-03 -2.21450999e-02
   7.11851344e-02 -3.19451094e-03  2.14606747e-02  1.18921474e-02
   7.50275925e-02 -6.07161894e-02  4.05529141e-02  7.77290240e-02
  -5.42808324e-03 -7.57051110e-02 -6.45326376e-02 -2.79712081e-02
   3.05244848e-02 -3.34265605e-02 -7.65661672e-02  1.62340179e-02
   2.92002112e-02 -3.74503210e-02  6.80473819e-02 -3.68083641e-02
  -9.59920138e-03 -2.40681395e-02 -5.09750247e-02  1.17069036e-02
   6.61375895e-02  4.71393242e-02  2.57909894e-02  1.15406737e-02
   1.54969394e-02 -4.34164554e-02  5.52778319e-02  6.39328882e-02
  -1.01228058e-03  2.12153047e-03 -2.50097960e-02  7.32194409e-02
  -3.10646743e-03  1.67178437e-02 -7.96295106e-02 -7.45645389e-02
  -2.98419930e-02  2.52048075e-02  5.94427064e-02 -1.82894319e-02
  -1.88484229e-02 -2.03481317e-03 -6.67056888e-02  2.71084309e-02
  -4.62693982e-02 -3.58143784e-02  5.83895817e-02  7.36436173e-02
  -7.50666559e-02  3.21333855e-02 -2.97953114e-02  4.42493781e-02
  -2.25858390e-02 -7.99941942e-02  8.98499787e-03 -1.94114372e-02
  -7.70441890e-02 -4.35503162e-02 -6.65457994e-02 -5.64146563e-02
   6.00764528e-02  4.15156931e-02 -2.21151114e-03  1.82491690e-02
  -3.38418037e-03  8.08435157e-02  4.62185964e-02  7.00486228e-02
  -7.53587037e-02  3.98051739e-03  6.51123300e-02 -5.23918271e-02
  -6.34318888e-02 -6.99311793e-02  6.25303313e-02  1.06901154e-02
   5.77047467e-05  3.50359827e-03  4.04191762e-03 -1.32637545e-02
  -8.07509571e-03 -7.27657974e-03 -7.86557868e-02  3.29484195e-02
  -2.40314938e-02 -4.66938913e-02 -6.28315881e-02  3.46705541e-02
   3.76825929e-02 -1.55050829e-02  8.09721276e-02 -7.15954304e-02
   3.34644616e-02  3.30142900e-02 -5.81045896e-02 -3.64804082e-02
  -3.31945978e-02  5.24738058e-02  4.21878323e-02  2.72053331e-02]
 [-4.59110588e-02  5.76049089e-04 -2.70637870e-03  1.79256722e-02
   5.82350865e-02  1.92071870e-02  3.54518816e-02  4.37203944e-02
  -4.89160568e-02 -1.40863061e-02  5.41891232e-02 -6.22495227e-02
   2.85457671e-02  1.67543441e-03  6.13289550e-02 -7.36013949e-02
   5.68852201e-02 -3.30317765e-03  7.57258460e-02 -1.91886015e-02
   7.17319772e-02  5.71953282e-02 -2.75690854e-03  2.89257839e-02
   4.36814129e-02 -4.83906344e-02  8.45557451e-03 -6.81113675e-02
  -6.63363636e-02 -7.67529383e-02 -6.01676777e-02 -5.26093803e-02
  -7.88959861e-03  4.17384878e-02  6.77981451e-02  1.48037747e-02
  -5.15457764e-02  2.87509635e-02 -6.29278868e-02 -4.59828787e-02
  -3.03545594e-03 -5.09712324e-02 -6.25394061e-02 -6.78730011e-03
   4.45637181e-02 -4.31243703e-02 -5.83059192e-02 -5.79750612e-02
  -1.04850680e-02 -9.50369239e-03 -7.44094104e-02 -6.08143210e-03
   2.05841511e-02  2.16081142e-02  2.17190385e-03  6.13944456e-02
   3.44501734e-02 -6.37572333e-02  5.96716627e-02  6.38495013e-02
  -4.93166298e-02 -6.95992932e-02 -1.52602941e-02  4.17752713e-02
   7.80790970e-02 -6.31209463e-02  2.58700252e-02  1.85766220e-02
   1.88040435e-02  8.44536722e-03  5.96245453e-02 -1.43278614e-02
  -3.70746739e-02 -3.74683030e-02  5.09332120e-03  2.52472162e-02
   5.53171709e-02 -6.95101917e-03 -5.63111007e-02 -3.88326794e-02
  -4.89984378e-02 -7.85922259e-02  5.29620126e-02  4.16546986e-02
  -6.75320625e-03 -6.53434992e-02  5.88465855e-02 -7.78938830e-03
   7.57199004e-02  3.49717885e-02  6.06436059e-02  6.74873814e-02
   1.46427304e-02 -1.50971562e-02 -3.52038667e-02 -7.26737157e-02
   1.74384862e-02 -7.82405585e-02  4.77966443e-02  1.86263993e-02
   1.00998878e-02 -4.23069596e-02  8.04299936e-02 -6.74799308e-02
   5.74093983e-02  6.24922588e-02 -7.19158873e-02 -5.45474663e-02
   3.09414566e-02 -7.02730417e-02  3.84962335e-02  2.33509988e-02
  -7.05138594e-03 -4.32551354e-02 -6.71722218e-02  7.98337981e-02
   2.66118571e-02  4.25912514e-02 -5.31961992e-02  7.22043738e-02
   2.45797634e-03  7.06182048e-02 -4.26206663e-02 -2.87685432e-02
  -1.03618056e-02 -7.44104162e-02 -3.30111161e-02  2.74384543e-02]
 [-5.59171364e-02  6.77891299e-02 -7.90789500e-02 -1.13717541e-02
  -2.61937641e-02 -5.92575222e-02 -8.07604343e-02  4.56480905e-02
  -6.10216781e-02 -2.08213925e-02 -5.37359715e-02 -2.25259103e-02
   1.81865916e-02 -1.95199065e-02 -5.73873520e-02  2.42780373e-02
   4.59206179e-02  3.00826877e-03 -2.26601958e-03 -3.99075784e-02
   4.16143388e-02  2.32123211e-02  1.53060704e-02 -6.50955215e-02
  -2.22666785e-02 -4.18679975e-02 -1.49458647e-05  7.23026767e-02
   6.52411804e-02 -4.28097732e-02  3.26985717e-02 -8.09467807e-02
  -4.70358878e-02  2.78155133e-02  7.87886456e-02 -3.09323445e-02
   5.91977462e-02  4.60832492e-02 -6.57639503e-02 -6.30828515e-02
  -6.75885528e-02 -4.20340784e-02  6.81642368e-02 -5.18186167e-02
  -5.80486283e-02  5.05344197e-02 -5.64448610e-02 -2.27358863e-02
  -6.03209361e-02  7.67593160e-02  4.46756557e-02  6.40954599e-02
  -3.69570591e-02  4.27521765e-03  2.66017765e-03  7.71282613e-03
   1.75475329e-02 -5.35517931e-02  1.26272514e-02 -5.93160391e-02
   2.97431350e-02  5.76700047e-02 -3.21573876e-02  3.65308449e-02
   1.55177489e-02  5.98606095e-02  3.44848111e-02  2.40512192e-04
  -6.27634227e-02  5.28771058e-02  2.10184306e-02 -5.46444282e-02
  -4.52897958e-02  9.32707638e-03  2.19274685e-02  2.24584565e-02
   5.54172769e-02  5.56273684e-02 -7.90147260e-02  3.30242068e-02
  -2.88700126e-02 -6.77023232e-02  3.84669900e-02  2.48164535e-02
   7.57640973e-02 -6.38177395e-02 -2.02945992e-02 -7.91769922e-02
  -1.35469809e-02  6.20288476e-02 -1.63768157e-02  7.23173544e-02
   5.16542867e-02  1.66506320e-03  2.05339491e-02  6.14938363e-02
  -1.08391047e-03 -3.88483033e-02 -4.26899157e-02  6.62289038e-02
   7.51977414e-03 -4.28190194e-02  1.54065937e-02 -3.62218544e-02
   7.20754042e-02  7.47449324e-02 -7.87074864e-03  5.42558804e-02
  -5.56772873e-02  3.09038013e-02 -7.28016049e-02  4.04104143e-02
  -4.93835211e-02 -5.47686741e-02 -4.99521643e-02  3.70108560e-02
   7.70648792e-02  1.32574886e-02  3.32899764e-02  5.25931194e-02
  -6.82152733e-02  1.80070698e-02  4.63935360e-02  2.32381597e-02
  -1.27556995e-02  3.26004252e-02 -4.19869311e-02  3.80953699e-02]
 [ 5.77979460e-02 -4.05449308e-02  3.27052251e-02 -1.74362585e-02
  -7.97831938e-02 -7.25851208e-03 -7.46158212e-02  1.05214044e-02
  -4.14630547e-02 -4.73063923e-02 -3.54074687e-03  7.80285150e-03
  -6.05589896e-02 -2.10669897e-02 -7.38040432e-02 -2.47155465e-02
  -2.29322650e-02  5.01748100e-02  2.04458982e-02 -4.84532900e-02
   2.99093127e-02  4.60148826e-02  7.71595612e-02 -8.31129402e-03
  -5.88196218e-02  1.80959702e-02 -9.16674733e-04  8.59305263e-03
   4.82817218e-02 -1.53346360e-02  6.21486679e-02 -3.88732329e-02
  -2.52757370e-02 -7.36148134e-02 -3.10127363e-02  6.74732402e-02
   4.15024459e-02 -2.65411399e-02 -4.99255732e-02 -6.29950315e-02
   3.64903435e-02  3.51718441e-02 -6.73133954e-02  3.91526893e-02
  -6.25454783e-02  6.72775432e-02  2.13323087e-02  5.88336214e-02
  -6.46832436e-02  7.02649578e-02 -4.54043560e-02 -7.24947974e-02
  -1.19957030e-02  4.30313945e-02  3.40243056e-02 -5.18449396e-02
  -1.91708691e-02  4.52078953e-02 -3.43867838e-02  1.42419413e-02
  -3.19551863e-02 -5.88501617e-02 -4.07720022e-02 -3.67692634e-02
   6.23664185e-02  2.18958706e-02  4.84541431e-02 -2.11114660e-02
   5.53375483e-03 -6.30193427e-02 -7.78125003e-02  1.44050792e-02
  -4.27535959e-02 -7.06239566e-02  4.80196252e-02 -1.00084022e-02
  -1.75945088e-02  1.96890160e-02  3.45942229e-02  6.60505667e-02
   8.95559788e-06  3.84615734e-02 -2.87773237e-02  5.17715737e-02
   1.25955790e-03 -2.17003003e-02 -3.03761549e-02  7.34359547e-02
   1.61731988e-02 -1.69942826e-02 -6.17721379e-02  6.80454001e-02
  -5.25173321e-02 -2.02506408e-02  6.78429380e-02  7.05167577e-02
  -1.09254792e-02  3.72422040e-02 -7.42244944e-02 -2.82088183e-02
   4.90104035e-02  6.06603250e-02  2.15060636e-02 -7.10653141e-02
   1.80499256e-02  3.42806727e-02  7.40370676e-02 -7.57500529e-03
   7.23095760e-02 -6.09265119e-02 -4.80432212e-02  3.77590731e-02
   4.83131781e-02 -2.96430029e-02  4.39777449e-02 -2.22839303e-02
  -6.25150353e-02  7.78068379e-02 -7.71229789e-02  1.72587931e-02
  -6.80775940e-03 -4.17504422e-02  6.95350692e-02  4.64495495e-02
   5.21042272e-02  1.35079026e-04 -5.78813106e-02 -7.25349039e-02]
 [ 7.15329498e-03  2.24736407e-02  5.86103424e-02  1.01739168e-02
  -2.25167423e-02 -6.85963556e-02  3.18140388e-02  5.58326170e-02
   1.37314871e-02  4.50189486e-02 -6.32993802e-02  5.25204837e-03
  -7.15423673e-02 -4.83019501e-02 -6.59950450e-02  5.39494529e-02
   6.70133159e-02  7.55406544e-02  2.11350620e-04 -2.48331055e-02
   5.74559048e-02 -7.16925114e-02  5.89878038e-02  4.25763428e-02
  -3.88407446e-02  4.42967340e-02 -6.84715658e-02 -4.66868281e-04
   2.14063376e-03  1.22411475e-02 -5.89327365e-02 -2.83458829e-03
  -5.51898852e-02  1.77197978e-02  6.81576505e-02 -4.72472385e-02
  -1.95109844e-03 -1.75082013e-02  1.00169331e-02 -5.31737506e-02
   5.19875512e-02  2.20112801e-02  4.97259870e-02 -3.79915610e-02
   5.84230945e-02  3.01631466e-02  6.83068708e-02 -7.98314586e-02
   3.05931345e-02  5.40319830e-03 -6.72589988e-03  1.40807927e-02
  -7.63328746e-02  3.03864479e-02 -1.72840878e-02 -2.06215717e-02
  -3.62958238e-02 -3.28628868e-02  1.33374929e-02 -4.05441783e-02
  -5.91124259e-02 -6.77718222e-03 -1.87641829e-02  1.94081888e-02
   4.73462567e-02 -3.93180884e-02 -3.34328264e-02 -7.82135800e-02
   7.58971348e-02  1.63863078e-02 -6.45291209e-02 -3.33345085e-02
  -6.27782717e-02  7.14575276e-02  5.94949946e-02  6.58813193e-02
  -1.62372515e-02  1.87935233e-02 -1.69697478e-02 -3.41389850e-02
  -3.79166231e-02 -1.83624476e-02 -2.58431435e-02 -1.75388157e-02
   2.61161625e-02  1.04761794e-02 -9.76964831e-03 -1.85823292e-02
   6.69306442e-02 -1.37931556e-02 -2.40156353e-02  5.82059994e-02
  -3.17067094e-02  2.05329806e-02 -7.06644356e-03  2.36292183e-02
  -2.00671814e-02 -1.85295939e-05  1.09643489e-02  5.41512594e-02
  -5.94489127e-02 -6.57065958e-02 -4.50240299e-02  7.45678023e-02
   3.09278369e-02  6.53189048e-02  7.23069832e-02 -5.01470566e-02
   7.71956369e-02 -1.41942948e-02  2.13033259e-02  4.04272377e-02
  -3.13365757e-02  6.70598671e-02 -3.11527625e-02  6.44959509e-03
   5.09419516e-02 -6.19640499e-02 -1.84591040e-02 -5.76537549e-02
   2.06329972e-02  9.32165980e-03  1.89973414e-03 -5.12382947e-02
   3.26445773e-02 -1.15575641e-03  6.48905709e-02 -4.86833602e-03]
 [-3.79922166e-02  1.92322657e-02 -4.98285927e-02  3.56541201e-02
  -8.78208131e-03 -4.04145718e-02  7.58574381e-02 -7.95217603e-02
   4.11045998e-02  4.02077511e-02 -1.86068267e-02  7.02730343e-02
  -7.43958503e-02 -2.07225233e-03 -6.57787248e-02  6.57566264e-02
   3.30781639e-02 -2.26596743e-03 -3.05674523e-02 -6.53862953e-05
   3.75560001e-02  3.59934717e-02 -6.25812262e-03 -4.19914946e-02
  -2.49150209e-02  2.14613378e-02 -5.62952012e-02 -7.10843429e-02
   3.46840322e-02  7.52899572e-02  7.63860568e-02  7.25776628e-02
  -5.40930144e-02  3.43997255e-02  5.38578406e-02  4.85973582e-02
   4.11613807e-02 -3.67171653e-02 -2.90966034e-03  4.06456664e-02
   7.07965419e-02 -3.70790809e-02 -3.94971222e-02 -7.13289529e-02
   4.40129414e-02  4.90963534e-02 -1.36206001e-02  5.23267910e-02
  -3.53621505e-02 -1.00360587e-02  6.87460676e-02  2.75873020e-02
  -2.61255801e-02  3.23440880e-03  4.76695225e-02  6.33125678e-02
   7.38196447e-02 -7.80302733e-02  8.79500061e-03  5.27154654e-03
   3.43402773e-02  2.90853232e-02  4.79727462e-02 -5.57100847e-02
  -6.97039962e-02 -7.66635761e-02 -6.10803105e-02  3.20983902e-02
  -2.83337608e-02 -6.06835485e-02  6.23652339e-03  3.54610682e-02
  -6.62893131e-02  2.22149491e-02 -4.20480222e-03  8.78775120e-03
  -4.15634215e-02 -7.31702670e-02  4.14006338e-02 -5.01846671e-02
  -1.09294280e-02  5.44879660e-02 -3.96749005e-02 -2.96988115e-02
  -4.22632918e-02  6.04530498e-02  4.23653647e-02  3.50433365e-02
  -3.41073461e-02  6.48141429e-02  5.71170375e-02  1.05433539e-02
  -5.82729876e-02  3.71043012e-02 -5.39732352e-02  1.25934109e-02
   6.77581131e-03  1.43401772e-02  1.66037083e-02 -3.26508619e-02
  -3.25543061e-02  1.98443979e-03 -9.88736004e-03 -3.32148820e-02
   7.71868154e-02  5.52204028e-02 -2.36560777e-02  6.92244098e-02
   6.11982569e-02  6.40695468e-02  7.13424459e-02  1.22452453e-02
   7.36502036e-02 -7.41859525e-03  4.61032614e-02 -5.22310063e-02
  -1.58696845e-02  2.44524479e-02 -3.17476466e-02 -4.21054736e-02
   1.41409785e-02 -2.88262293e-02 -4.04795296e-02 -1.81210712e-02
   1.02112219e-02  1.84241757e-02  6.71096668e-02 -6.12819307e-02]
 [ 6.41461536e-02  1.92034170e-02  8.83191824e-05  4.80218753e-02
   7.81626031e-02 -1.48909390e-02  5.00350222e-02 -3.84037942e-02
   3.77140194e-02  2.06263065e-02 -4.10953388e-02 -6.65308461e-02
   7.94046596e-02  7.15622529e-02 -7.07659721e-02  1.21075138e-02
   6.51253760e-03 -6.70874417e-02 -5.08234873e-02 -6.88976273e-02
   2.57468745e-02 -1.07509345e-02  5.83445206e-02 -7.99404904e-02
   8.00818577e-02  7.25928321e-02 -5.99744879e-02 -6.48575649e-02
  -3.83131541e-02 -4.40923683e-02 -6.23456165e-02  3.48664150e-02
   3.53302062e-02  8.03164393e-03  3.77259851e-02  6.07637092e-02
   6.81765452e-02 -2.93387324e-02 -6.41717315e-02 -3.62391621e-02
  -2.54712105e-02 -7.50695020e-02  3.84274647e-02 -5.09760492e-02
   5.05552515e-02  5.93271628e-02  3.83952260e-02  6.72271624e-02
  -5.89684695e-02  6.40776828e-02  2.55900994e-02  8.70960206e-03
  -7.05868229e-02 -6.31535873e-02 -5.26496246e-02 -6.78576306e-02
  -2.17430554e-02  7.07944259e-02  3.80786955e-02 -4.02716547e-03
   4.66972813e-02 -3.90359014e-03 -1.02643445e-02 -8.10141116e-02
  -6.97012693e-02  1.43915638e-02  4.92075607e-02 -5.91999292e-02
   5.08804247e-02 -4.12870012e-02 -5.84594868e-02  1.01142377e-02
   2.92119309e-02  6.33863881e-02  4.75183129e-04 -3.01410407e-02
  -3.92246284e-02 -1.65285245e-02 -7.55089223e-02 -7.05983117e-02
   1.78386942e-02 -1.29254460e-02 -4.65407223e-03  6.91701993e-02
  -3.18676606e-02 -6.55258372e-02  8.09319988e-02  1.85294151e-02
  -9.14666802e-03 -1.14852190e-03  3.95340398e-02 -5.47877848e-02
   9.76648182e-03 -4.50663231e-02  1.26275048e-02 -5.17660156e-02
  -5.44404238e-03  4.41515222e-02  5.79162613e-02  5.32159433e-02
   1.78212896e-02  6.50062487e-02 -5.15392944e-02  6.06585070e-02
   6.78384826e-02 -5.22626452e-02 -2.63143592e-02  2.57656127e-02
   5.73360249e-02  1.79798454e-02 -4.18245457e-02  6.17905483e-02
  -5.90291359e-02 -4.89538610e-02  6.44000396e-02  1.11268908e-02
   5.56213781e-02  5.15984073e-02 -7.26223961e-02  6.32110015e-02
  -6.79428726e-02 -3.36904079e-03 -7.36366510e-02  3.95644754e-02
   6.86320141e-02  5.44860438e-02  3.35754827e-02  3.39959562e-02]
 [ 5.42443246e-03 -1.55295059e-02  7.40050599e-02  6.83267638e-02
  -4.66746874e-02 -6.88018426e-02  3.57699543e-02  3.39680538e-02
  -4.86427471e-02  3.94958705e-02 -4.13818657e-03 -1.06937885e-02
   6.66016415e-02 -3.23843993e-02 -5.82021326e-02  7.35101178e-02
   6.93972334e-02 -6.52927756e-02  4.16644216e-02  3.39883566e-02
  -1.12379864e-02 -6.33191615e-02  3.23837623e-02  2.92711258e-02
  -8.13186914e-03  7.64167830e-02 -1.20601207e-02  3.64441872e-02
  -5.18262982e-02 -6.84281662e-02 -5.47831021e-02  3.65180597e-02
  -1.70049220e-02 -2.75979377e-02  4.21909317e-02  2.12195069e-02
  -4.61171269e-02  5.38961962e-02  5.88145033e-02 -1.87467784e-03
   1.56982094e-02  3.09415162e-04  4.70284447e-02  2.09923089e-03
  -7.79054463e-02  1.14535913e-02  5.12120798e-02 -3.81010137e-02
  -6.37751222e-02  2.25590393e-02 -7.39165321e-02 -2.23730505e-03
  -6.43633306e-04 -7.14737773e-02 -2.92031132e-02 -6.80714920e-02
  -6.29505962e-02 -5.66508919e-02 -2.56067328e-02 -6.58184066e-02
   4.83209640e-03  4.85477522e-02 -1.21290386e-02  2.34843120e-02
  -7.87958950e-02 -2.43528746e-02 -1.04519799e-02  5.80533594e-03
  -4.58088368e-02 -4.99581173e-02  6.05818406e-02 -3.80478166e-02
  -1.65014490e-02  1.06559619e-02 -3.45383212e-02 -7.24533349e-02
  -5.91002032e-02 -7.95187801e-02  4.57144007e-02 -1.96435340e-02
   6.55877367e-02 -4.49863970e-02  7.37461969e-02  7.84478858e-02
   5.47290072e-02 -2.28932202e-02  6.40063658e-02 -4.16050181e-02
   2.48466954e-02 -5.26455231e-02  6.97460398e-02 -7.51887038e-02
   5.17274961e-02  2.58982778e-02  1.75859630e-02  3.92592996e-02
  -6.85645789e-02 -2.15161033e-02 -7.43194073e-02  4.74077240e-02
  -5.52888736e-02 -4.89777625e-02 -6.32287785e-02 -3.04999016e-02
   3.14303041e-02  3.93578708e-02  3.71849388e-02 -3.08024511e-02
  -6.31935969e-02  2.91408226e-02 -1.98336691e-02  2.45305374e-02
  -2.90551782e-02  5.40549830e-02 -5.34930080e-02  5.22689298e-02
   3.77420932e-02 -3.35629731e-02  3.07552814e-02 -6.30871803e-02
  -2.85737291e-02  4.84464839e-02  4.03522700e-03  4.38295230e-02
  -1.71246454e-02 -4.97194640e-02 -5.89168593e-02 -7.86313415e-02]
 [ 5.56474999e-02  2.28696689e-02  4.34669852e-02 -3.34966443e-02
   5.79941496e-02  1.37428418e-02 -4.92472947e-03 -2.87253223e-02
   3.92938182e-02  5.43154776e-04 -4.27761823e-02  7.24263266e-02
   1.70274526e-02 -3.93577702e-02  4.97283861e-02  7.27312341e-02
   3.30246910e-02 -1.79015994e-02 -1.06902868e-02 -1.52558088e-04
   7.80291632e-02  7.48386756e-02 -4.15057354e-02 -9.58064198e-03
  -1.64000690e-03  4.09222394e-02  6.97451904e-02 -5.15564531e-03
   6.28609434e-02 -7.53812343e-02 -6.81920052e-02  6.04465380e-02
   4.04500589e-02 -2.81048156e-02  3.83647531e-02  2.65046954e-03
  -5.89112304e-02  2.19416767e-02 -4.49590907e-02 -8.02417025e-02
   9.97235626e-03 -5.15523478e-02  6.74037859e-02  3.81629765e-02
  -4.81103249e-02  2.99113989e-02 -2.07956359e-02  3.58066782e-02
   9.07076150e-03 -5.34556806e-02  7.86103085e-02 -5.57279140e-02
   2.99066603e-02  5.12452796e-02  2.44843364e-02 -1.04969069e-02
   1.22785270e-02  3.87558490e-02 -5.69057688e-02 -7.40681663e-02
   1.52270123e-02 -2.25762650e-02 -5.17228544e-02  1.05701759e-02
  -1.87641382e-03  4.40727994e-02  1.41701549e-02  7.68210217e-02
   1.80246681e-02 -7.00884759e-02  5.01798093e-03 -4.82657291e-02
   6.95277825e-02 -5.24526238e-02 -4.15743068e-02  3.10526118e-02
   9.87052917e-05 -7.33643025e-03 -2.14047506e-02  5.76106384e-02
  -6.41910508e-02 -7.81030059e-02 -6.36361539e-02 -6.92813322e-02
  -3.11603434e-02  1.18842348e-02  7.61722997e-02 -1.79822594e-02
   5.82021102e-02 -3.13230567e-02  3.36512327e-02  4.38900664e-02
   3.46516594e-02  3.68456542e-03 -6.23106323e-02 -5.56547567e-02
   6.12583011e-03 -2.51557454e-02  4.35889736e-02  7.95193017e-03
   1.39259547e-02 -4.24897820e-02  3.75490189e-02  2.70750523e-02
  -1.04004890e-03  3.52899581e-02 -3.70174311e-02 -3.76090296e-02
   8.06172714e-02 -9.89983976e-03  4.28976268e-02  5.55312112e-02
   7.16417357e-02 -6.43851086e-02  1.23349503e-02  4.03978452e-02
   4.68062088e-02  2.79036164e-03  4.99145314e-02 -4.41313945e-02
   7.91379064e-03 -3.75517681e-02 -4.65800278e-02 -1.13792941e-02
  -5.37700057e-02 -1.07105374e-02 -5.39026111e-02  1.59220323e-02]
 [-3.94572280e-02 -7.31317103e-02  4.50332090e-02 -4.05218974e-02
  -3.59978527e-03  8.99443775e-03 -3.52297798e-02  1.62164867e-03
   3.71792167e-03 -3.42805199e-02 -7.90130273e-02 -6.57380149e-02
  -5.76291978e-02 -2.37108432e-02 -5.12266532e-02  2.55880728e-02
   3.37512866e-02  3.18616107e-02  8.10393170e-02  3.57665122e-04
   4.41876724e-02  7.47801736e-02 -5.10889255e-02 -7.81109929e-02
  -1.27362460e-02 -2.22594850e-02 -7.05431178e-02 -1.45158917e-02
   6.36562333e-02 -1.98036768e-02  1.44286156e-02  7.04242811e-02
   2.87864357e-02 -2.37184241e-02  4.56748083e-02 -3.26819979e-02
  -5.24487346e-02 -2.10842974e-02 -7.42573291e-02  1.21774822e-02
   3.09758410e-02  7.42890313e-02 -4.26395983e-02 -1.20663866e-02
  -3.53140756e-02  4.99929413e-02  3.85334194e-02  4.74399999e-02
   4.14085016e-02  4.94512841e-02 -5.92929497e-02 -4.77155149e-02
  -6.36870414e-03  4.81383428e-02 -4.44668531e-02 -2.70546675e-02
   1.60007253e-02  5.86686358e-02 -7.50313103e-02 -3.35401557e-02
   2.13137493e-02 -2.60220021e-02  2.90055946e-02 -7.57737458e-02
  -3.53081971e-02  1.32407397e-02  7.15808496e-02 -7.70402104e-02
   2.43767425e-02  3.06862295e-02  3.03807408e-02 -3.38141620e-03
   4.24801111e-02  3.87737751e-02 -1.41277909e-02  6.88642338e-02
  -1.44772902e-02 -1.79559588e-02 -7.51611814e-02  6.10941425e-02
  -1.70733184e-02 -5.84800839e-02 -6.72870129e-03 -1.53999031e-02
   1.32831112e-02 -2.28358060e-03  1.15983188e-02 -7.43238553e-02
  -9.34429467e-04 -2.56281383e-02  4.19151634e-02 -6.42786548e-02
   9.18586552e-03  3.44430581e-02 -4.16154414e-02 -4.58657481e-02
  -1.38746500e-02 -4.69659045e-02 -5.02616167e-02 -5.10422885e-03
  -1.36565492e-02 -7.52705187e-02  7.88703635e-02 -6.08011633e-02
   7.55425915e-02 -1.01065263e-02 -3.69752757e-02 -3.93104516e-02
   5.67197800e-03 -7.50950277e-02 -1.02732405e-02 -6.98313192e-02
   9.34796035e-03  5.94858453e-02  2.77491659e-02  2.41154581e-02
   4.11140397e-02 -3.62589844e-02  3.65677401e-02  2.27032825e-02
  -3.71296518e-02  6.02470860e-02  3.12470570e-02 -6.55340180e-02
  -4.04920392e-02  5.08666560e-02  3.97709757e-03 -7.68271610e-02]
 [ 6.42362610e-02 -2.54572928e-03 -2.24011391e-02 -7.13201910e-02
   3.90304103e-02  5.07340804e-02  5.47923073e-02  7.40599707e-02
  -4.10064384e-02  4.23850268e-02 -1.68216750e-02  3.24748456e-04
  -8.36773962e-03  4.82486933e-03  2.76753679e-02 -1.26736835e-02
  -5.50226867e-02  5.82035109e-02  7.97904655e-02  6.88620284e-02
   6.12883195e-02  5.75916395e-02 -4.82873283e-02  7.50626996e-02
   3.59260961e-02 -5.42256162e-02 -5.84234595e-02 -7.07506984e-02
   5.83754852e-02 -3.41219455e-02  5.45170531e-02 -5.03955111e-02
   1.51928812e-02 -6.17524236e-03  7.60604218e-02 -6.74034506e-02
   6.13109395e-02  3.91460583e-02  6.07099757e-02  2.10687071e-02
  -3.39928642e-02  6.31790981e-02 -5.33278175e-02 -2.43125744e-02
  -7.93744549e-02  9.58181918e-03 -3.95150110e-02 -1.43917575e-02
  -1.76147744e-02  1.10152140e-02  7.31712356e-02 -2.05016322e-02
   1.77150220e-03  1.17029995e-02 -1.85393170e-02  2.73646414e-03
  -5.69480248e-02 -1.78493112e-02 -5.36848232e-02  6.87367842e-02
   8.89001042e-03 -4.71814871e-02  4.71207872e-02  5.38970754e-02
   7.84360245e-02  7.35435709e-02  4.33800444e-02  2.05716938e-02
  -3.70804369e-02 -5.40333390e-02 -3.51228565e-02 -2.06543095e-02
   2.45822072e-02 -3.46757472e-04 -6.96741566e-02  2.96743959e-03
  -1.13269091e-02 -6.33037537e-02 -5.44982478e-02 -4.89385277e-02
   7.39353076e-02  2.31369063e-02 -1.03905797e-04 -2.96375901e-02
   4.35682386e-03 -5.53214997e-02  6.50073066e-02  9.66365635e-03
   7.16886893e-02  5.33500388e-02 -7.33719096e-02 -4.28318791e-02
   3.58471200e-02  1.64174661e-02 -5.89753762e-02 -6.99267536e-02
  -4.68332618e-02  2.24805996e-02 -1.36178210e-02 -7.09048063e-02
   2.32676864e-02  7.47242346e-02 -6.76550716e-03  5.80263510e-02
   3.93969119e-02  5.96397743e-02 -4.48455177e-02  2.19617113e-02
  -7.82682300e-02 -3.42926383e-03 -2.46475711e-02  5.82650974e-02
   4.40534577e-02  7.28204027e-02 -2.77771652e-02 -5.13449833e-02
  -7.27341920e-02  6.65440336e-02  4.85036299e-02 -4.60728817e-02
   6.44638017e-02  1.85167789e-03 -1.43195838e-02 -6.53380007e-02
   6.42314032e-02 -6.42715544e-02  5.70337549e-02 -7.68609792e-02]
 [-7.58616328e-02  3.00489143e-02  5.71003556e-03  2.13441104e-02
   5.41583523e-02  3.58198509e-02  5.52585497e-02  7.22658709e-02
  -4.57060337e-02 -6.06947988e-02  6.36600032e-02 -6.06262274e-02
  -1.06740445e-02  6.56264797e-02 -7.01307282e-02  2.94840410e-02
   5.64124361e-02  4.37709689e-02  6.74571916e-02  4.87254038e-02
  -5.23450822e-02  7.87537768e-02  8.04469064e-02  5.23423031e-02
   5.66296801e-02 -2.78705508e-02  2.67749578e-02  2.95799971e-02
  -1.16577074e-02  6.79612383e-02 -7.03433007e-02  2.84145027e-03
   2.17026994e-02 -3.32527496e-02  5.05129993e-03 -3.15975845e-02
  -7.65972659e-02 -5.09670153e-02  2.17913017e-02  4.88116518e-02
   2.27573887e-02  3.63390073e-02 -5.81622869e-03 -5.11369631e-02
   3.33367288e-03 -4.38284576e-02  4.90558892e-03 -5.84147871e-03
  -5.17754927e-02  1.52486563e-03 -5.40605932e-03 -5.81590459e-02
  -1.46073177e-02  6.12120852e-02 -8.53996724e-03 -6.24377429e-02
  -2.82888114e-03  2.23219097e-02 -2.74763778e-02  1.98832750e-02
   1.06531829e-02 -2.76165046e-02 -1.64362192e-02 -5.98050058e-02
   2.63725966e-03  6.82114065e-03 -3.05193365e-02 -7.72092640e-02
   4.38466370e-02  4.03924882e-02  7.67416283e-02  3.27169001e-02
  -7.27501810e-02  5.63816056e-02  5.50819412e-02 -6.57427385e-02
  -6.73746541e-02  1.38244480e-02 -1.98885910e-02 -5.33084013e-02
  -6.70520142e-02  2.27336586e-02  7.56053999e-02 -7.79834539e-02
   2.68233046e-02 -1.66499466e-02 -1.41600668e-02 -2.16709040e-02
  -4.30867188e-02  7.43414089e-02 -5.96839860e-02 -2.13979930e-03
  -6.91639110e-02  3.13414857e-02  5.52472547e-02  2.51878873e-02
   4.70932052e-02 -7.55968690e-03  2.09176615e-02  2.81189159e-02
   7.26135746e-02 -2.26304531e-02  5.41162565e-02  7.24624619e-02
  -7.45924264e-02  2.65843794e-02 -2.74174660e-03 -7.53367692e-03
   3.98473814e-02 -3.26533765e-02 -2.70071924e-02  4.32777032e-02
   2.74171829e-02 -6.25248998e-02  5.18894866e-02 -1.43897831e-02
  -2.07546577e-02  2.81042531e-02 -5.09145334e-02  3.09068933e-02
   2.84967273e-02  4.01189476e-02 -3.72529328e-02  5.21059409e-02
   2.23584995e-02 -5.58357053e-02 -2.66423747e-02 -7.21826404e-02]
 [-5.45471907e-04 -2.36268379e-02 -6.72533661e-02 -4.94563691e-02
  -3.09793651e-03 -5.90158254e-03 -5.84532022e-02 -6.84405044e-02
   6.11179844e-02 -6.61799312e-03 -7.63490573e-02  4.09575552e-03
  -5.54111600e-03  6.95991442e-02 -3.18541452e-02  3.22239101e-02
   3.79616246e-02  2.21403837e-02 -5.78379929e-02 -6.86175302e-02
   7.54185989e-02 -5.84590212e-02  3.80495712e-02  3.13017815e-02
  -7.74193183e-02 -4.86358255e-02  4.80436906e-02  2.77396291e-02
  -4.56212722e-02 -2.86834948e-02 -6.27327710e-02 -6.83961064e-03
   3.05835381e-02 -6.21211939e-02  3.15251425e-02 -6.78544417e-02
   2.56170556e-02  5.36993667e-02 -2.23643333e-03  3.77672911e-03
  -5.61472252e-02 -6.16093650e-02  1.21255964e-02  2.55623460e-03
   4.72314432e-02  4.53210622e-03 -6.48224652e-02 -3.83623317e-02
  -4.22584005e-02  6.24700636e-03  1.01931393e-04 -4.50925268e-02
   5.67570850e-02 -5.70674203e-02 -5.62076941e-02 -2.88136043e-02
  -1.79190412e-02 -3.93387638e-02  7.52563849e-02 -1.84959993e-02
  -7.17197806e-02  2.66187042e-02  4.62871119e-02  2.48122215e-03
   5.51920310e-02  3.81296873e-03  1.31192580e-02  2.88433284e-02
  -5.02300151e-02  5.70455715e-02  2.62897611e-02 -4.22402620e-02
   1.48146823e-02  3.52419987e-02  7.10155591e-02 -7.52144009e-02
   1.71632022e-02 -1.77352726e-02  7.67677650e-02  7.60018006e-02
  -6.96927160e-02 -3.23245488e-02  3.53671983e-02  3.90809998e-02
  -9.54519212e-03 -2.48655938e-02 -7.27166310e-02  1.61719397e-02
   7.89627209e-02 -8.69121403e-03 -5.07839024e-02  5.14427647e-02
   1.80141479e-02 -4.13096435e-02  8.09480250e-03  1.15304217e-02
   4.46480140e-02  5.10575250e-02  1.19891465e-02 -2.99416445e-02
   1.51902512e-02 -7.29243010e-02  4.97004911e-02 -1.75138861e-02
  -7.63467923e-02 -3.78887169e-02  1.58539265e-02  5.62474951e-02
   5.03994524e-04 -3.20996642e-02 -2.91863307e-02 -7.52547234e-02
  -5.49049899e-02 -4.37858365e-02 -1.26482174e-02 -2.97301039e-02
   5.18920496e-02 -6.55513257e-02  4.26862985e-02 -3.19808498e-02
   3.81929874e-02 -1.50483325e-02 -2.75992751e-02  4.07301337e-02
   1.82888508e-02 -2.89488919e-02 -4.95361201e-02 -5.48277721e-02]
 [-7.81481564e-02 -3.95641327e-02  4.20717448e-02  3.27005014e-02
  -4.42062318e-02 -3.42204422e-03 -4.33711670e-02 -8.09335858e-02
   4.40388545e-02  1.99509338e-02  3.28351557e-02 -4.17834520e-02
   1.03615224e-02  7.49177113e-02  2.11647823e-02  1.35547593e-02
  -6.35087192e-02 -6.56739473e-02 -1.09307617e-02  4.62720022e-02
  -8.77939165e-03  5.54813519e-02  4.50358465e-02 -7.68104494e-02
   5.83758876e-02 -5.77463284e-02  1.31037459e-02  9.66086984e-04
   3.79703939e-03  4.63361666e-02  2.91103497e-02 -5.08535989e-02
   2.43840888e-02  4.09638584e-02  4.59076092e-02  4.85289767e-02
  -3.76765206e-02  6.11461326e-02 -3.68117094e-02 -3.33622210e-02
  -8.05081055e-02  1.47727802e-02 -4.70703132e-02 -6.48938417e-02
  -3.57578509e-02  3.11401561e-02  7.51667693e-02 -3.25012617e-02
  -4.43634130e-02 -9.18358564e-03 -6.43864051e-02  6.65348843e-02
   1.07948110e-02  3.98792103e-02 -2.11990327e-02 -4.08503003e-02
  -2.54777074e-02 -3.22536752e-02  3.93262133e-02 -4.47173044e-02
   4.19409648e-02 -7.65725672e-02  1.85210630e-02  6.62122741e-02
  -5.36846481e-02 -2.53561884e-03 -3.05213891e-02  6.14722595e-02
   4.38749641e-02 -5.38767539e-02 -2.44476534e-02  4.16131988e-02
   8.03487971e-02  2.33795047e-02 -5.13716117e-02 -6.68764859e-02
   6.62638023e-02  3.99646461e-02  4.02293652e-02  7.51083568e-02
   2.45526433e-02  3.54220793e-02 -4.65253182e-02 -5.27390838e-02
  -5.82684055e-02  2.81147957e-02 -5.60025945e-02  3.13605145e-02
   4.64215353e-02  2.62108967e-02 -7.24513084e-03  3.78746390e-02
   5.23834750e-02  8.03531185e-02 -2.18863934e-02  1.16969272e-02
   5.92194498e-04 -1.88424438e-03  7.62759820e-02  2.41517350e-02
   4.98814359e-02  2.91597024e-02  1.25677884e-03  4.02509123e-02
   7.48690441e-02 -6.02912083e-02 -7.60131925e-02 -5.79026788e-02
  -5.99712394e-02  3.67962196e-02  4.97804061e-02  6.46537915e-02
  -4.58862074e-02 -5.62850907e-02 -4.21968848e-02 -5.45825660e-02
   7.02377334e-02 -6.73814639e-02 -6.38835505e-02  6.60520867e-02
  -2.76711732e-02 -5.91191947e-02 -1.73055381e-02  3.11726034e-02
   5.02715334e-02  6.56121001e-02  5.56719825e-02 -4.81707752e-02]
 [-4.77429181e-02  4.41941693e-02  9.33324546e-03  2.69098207e-02
   2.54035071e-02  1.03550777e-02  5.01382127e-02  3.46225575e-02
   2.75071487e-02  7.14079365e-02  1.43995285e-02  2.07524523e-02
  -2.45518088e-02 -7.70548284e-02  2.10742429e-02  1.63315237e-02
  -2.21678205e-02 -4.52070646e-02  8.06728080e-02  6.20194003e-02
  -9.90834832e-03 -3.04005630e-02  1.05911791e-02  3.59120369e-02
   3.33824083e-02  3.85627374e-02  3.30617651e-02 -3.71834300e-02
   3.20189819e-02 -1.57348067e-03  4.29099277e-02 -4.82794382e-02
  -2.74995267e-02  4.26750034e-02  2.99964845e-02  4.06762362e-02
   6.85739443e-02  5.96824363e-02  2.46196240e-03  7.72537813e-02
   6.66838959e-02 -4.51587588e-02 -4.59447056e-02  1.99195892e-02
   5.23600504e-02  2.99932957e-02 -5.30985445e-02 -6.64284080e-03
  -1.73076838e-02 -1.67532340e-02  5.80205843e-02  3.31423879e-02
   6.63768426e-02  6.47626892e-02 -3.68887931e-02  6.26472309e-02
  -6.35825321e-02 -5.97482473e-02 -8.06046054e-02 -2.72306651e-02
  -7.42196590e-02 -8.09331611e-02  7.26956055e-02 -2.09749974e-02
   7.75151625e-02  1.15085095e-02 -3.58472727e-02  4.73883525e-02
  -1.98255479e-02 -7.73616880e-02 -2.21591778e-02  5.01146391e-02
   3.43844295e-05  5.85713163e-02  2.94885859e-02  2.16114372e-02
  -1.04391426e-02  7.91009888e-02  4.34602574e-02 -2.45084129e-02
  -2.03480683e-02  2.36071721e-02 -2.15805955e-02 -5.71457595e-02
  -1.76689625e-02  5.27877584e-02 -2.19678655e-02  2.37086043e-02
   6.64596036e-02  3.70472148e-02  1.19821727e-03 -7.65654743e-02
   5.19043282e-02  6.91538379e-02  7.40866885e-02 -7.65447617e-02
   6.94653019e-02 -3.20956036e-02 -6.90433383e-03 -3.02441157e-02
   4.30634618e-03  3.64206508e-02  7.20085129e-02  6.44145384e-02
   7.30494633e-02  4.05291691e-02  3.46982256e-02 -6.95529059e-02
   5.53571060e-02 -6.57665431e-02 -5.87201677e-02 -2.32976638e-02
  -4.40489501e-03  3.26943323e-02 -3.84241194e-02 -2.64589526e-02
  -3.12333070e-02  6.15880117e-02  7.79111460e-02  7.30475709e-02
   4.22578752e-02 -2.28249580e-02  3.52330506e-02 -2.47431211e-02
  -5.93853071e-02  6.30107149e-02 -4.19588313e-02  4.91687655e-03]
 [ 1.52028799e-02  3.43072265e-02 -2.59067453e-02  3.49074602e-04
   6.87457100e-02 -6.13619722e-02 -3.54661308e-02 -4.47076559e-03
  -6.16433620e-02  7.26334378e-02 -5.01863696e-02 -1.92947686e-03
  -5.70125952e-02 -5.78547008e-02 -7.58307502e-02  2.65620425e-02
  -7.66705722e-03  3.44223678e-02  7.67680481e-02 -8.48121941e-04
   5.22833690e-02  3.24158370e-03  4.27539870e-02  5.65290824e-02
  -1.88234746e-02 -7.15859607e-02  3.23569402e-02  1.23450458e-02
  -4.94131669e-02 -3.38651128e-02  2.43828520e-02  5.12852892e-02
   4.43571880e-02 -3.91159840e-02  5.35662398e-02  4.10331860e-02
   1.70470029e-02  3.53311524e-02  2.33389884e-02  7.45274499e-02
   4.32756320e-02 -5.08784503e-02 -3.83289158e-02 -7.99523816e-02
   3.39545384e-02 -4.87753898e-02 -3.62263210e-02 -7.20883831e-02
   3.32115367e-02 -5.59250861e-02  1.80167034e-02  3.69972065e-02
   6.26804754e-02  5.33099696e-02  1.90554559e-02 -3.25383320e-02
   1.93887129e-02  6.62414506e-02 -2.22916827e-02 -8.31773132e-03
   6.57435730e-02 -2.92704515e-02  1.33092552e-02  4.87236604e-02
   1.60006434e-02  1.35477781e-02 -2.25395411e-02  5.13602048e-03
   2.49666572e-02 -4.69158553e-02 -4.38091904e-03  2.34614387e-02
  -5.08737303e-02 -6.04355522e-02  3.99861336e-02 -4.01869789e-02
   8.04453120e-02  3.07879448e-02  4.17956710e-03 -8.00341293e-02
   4.34754193e-02  4.71761152e-02 -2.75396332e-02 -1.98545940e-02
  -5.00382483e-03  5.33953235e-02  4.59977165e-02  3.60063091e-02
   2.08146274e-02 -3.11829150e-04 -7.86416680e-02  1.15859061e-02
   5.33830151e-02 -5.96571490e-02  9.84887779e-03  6.35014847e-02
  -7.89066032e-02 -5.39665818e-02  4.94975597e-03  4.71603498e-02
  -5.78633621e-02  2.97063589e-02  7.46017024e-02 -5.68233728e-02
   5.15834317e-02 -5.15901744e-02  8.01882520e-02 -7.41105527e-03
  -3.99449989e-02  8.04924443e-02  5.61097339e-02 -3.41055468e-02
   8.64895433e-03  5.13681397e-02  1.28619820e-02 -6.74624518e-02
  -5.82911074e-02 -7.91266933e-02  9.09224898e-03 -6.44905418e-02
   2.89554894e-02 -4.29313146e-02  8.74677300e-03  6.80202469e-02
  -4.91990894e-02  1.19648799e-02 -5.63450567e-02  5.35126701e-02]
 [-1.77605692e-02  4.48004678e-02  1.01467818e-01  4.50294726e-02
   7.69441575e-03  7.26182014e-03  7.92367011e-02  7.36362562e-02
  -1.74564178e-04 -5.32822981e-02 -4.29577800e-03 -2.72625275e-02
   2.64884010e-02 -2.35267682e-03  5.66369481e-02  3.65066081e-02
  -7.20820427e-02 -2.36029960e-02 -2.12261323e-02  1.02508804e-02
  -5.50971366e-02  2.19863877e-02 -5.41228540e-02 -4.59867492e-02
   4.47107553e-02 -4.01661135e-02 -7.49096125e-02 -2.98233666e-02
   4.41153757e-02  2.73956805e-02  2.33157724e-03 -3.32545415e-02
   3.74956280e-02  3.00612375e-02 -3.71921137e-02 -2.49668304e-02
   3.57693955e-02 -6.73104227e-02 -1.17943138e-02 -4.37498465e-02
  -3.26212421e-02 -9.33758318e-02 -6.46467507e-03  5.89304119e-02
   1.68634653e-02  2.64925901e-02 -1.07236728e-01 -2.49852203e-02
  -7.60919377e-02  3.94687131e-02 -2.06019580e-02  8.77862051e-03
   7.19990358e-02 -5.63075766e-02 -8.85614753e-03 -3.14451335e-03
  -8.15430805e-02  1.09267756e-01 -7.06048086e-02 -4.09163199e-02
   5.56411631e-02  7.33999461e-02  4.14668657e-02 -8.48091543e-02
   5.56841157e-02  2.72960756e-02 -2.49709338e-02 -6.06463477e-02
   5.90570606e-02  1.74732357e-02 -7.40305707e-02 -5.55000417e-02
  -1.83568429e-02  6.26159310e-02 -6.60735741e-02  5.34958057e-02
   3.16520035e-02 -5.46399131e-02 -2.42601451e-03  4.76796404e-02
   1.30863851e-02 -6.12786934e-02  6.43131211e-02 -8.04380253e-02
  -5.93463331e-03  6.27211407e-02 -5.28230406e-02  2.70847380e-02
   1.66341290e-02  6.25812635e-02  5.64633831e-02 -7.30797350e-02
   8.86086822e-02  5.26829287e-02  1.75218284e-03 -7.39373043e-02
   2.55515762e-02 -2.20143721e-02  1.40906200e-02  4.66872603e-02
  -3.12902331e-02 -2.26604231e-02 -6.24945983e-02 -2.51443535e-02
   3.77677009e-02 -6.33595884e-03  5.77352419e-02  1.44921578e-02
  -3.92117864e-03  3.90280001e-02  1.77775212e-02  5.25925979e-02
  -4.97850217e-02  5.76946996e-02 -2.25297846e-02  4.32193205e-02
  -4.54588570e-02 -5.93449455e-03  6.04196563e-02 -3.26430798e-03
  -2.13517137e-02 -7.96053559e-03 -5.56342192e-02  1.22850044e-02
  -6.45968840e-02 -5.97258955e-02  9.19964612e-02 -3.06787677e-02]
 [ 5.82781099e-02  6.46466017e-02 -2.32118387e-02 -5.54120494e-03
  -1.55235976e-02  2.43600309e-02  1.22492008e-01  7.75543377e-02
   9.67391282e-02 -6.16602600e-04 -1.20282732e-02  4.76765726e-03
   5.52727059e-02 -1.08058579e-01 -1.01247154e-01  2.97487080e-02
  -3.92768858e-03 -4.92063612e-02  6.89791292e-02  5.75713925e-02
  -1.91632882e-02  4.32719812e-02  4.50489372e-02  4.22448367e-02
   2.82513164e-02 -3.61056514e-02  5.52948043e-02 -5.49804568e-02
  -5.22669964e-02  1.88758075e-02 -4.13077101e-02  8.24386030e-02
  -5.06550185e-02  7.57959783e-02  8.28663483e-02  7.76806474e-02
  -3.57377366e-03  3.37655284e-02  1.46684796e-03 -2.91104242e-02
  -5.27973250e-02  9.40836128e-03  4.34948355e-02 -5.22336140e-02
  -4.05709408e-02  4.80166078e-03  2.68151928e-02  1.00568607e-02
   6.84280992e-02  7.83481970e-02 -8.97843018e-02 -1.33146793e-02
  -7.18406215e-02 -1.22988988e-02  7.26519749e-02 -6.37814775e-02
  -1.02013268e-01 -1.04686394e-02  1.26896221e-02 -1.73981953e-02
  -7.27247447e-03 -6.52708160e-03  1.04516000e-01  2.05367226e-02
   2.97908653e-02 -2.91742999e-02  6.77515864e-02 -1.07129462e-01
   2.49506496e-02  5.24179041e-02 -1.07735256e-02  4.71619554e-02
  -1.97585914e-02  1.16798971e-02 -7.96212330e-02 -4.51420173e-02
  -2.29920335e-02 -6.73219271e-04  3.55113074e-02  1.06733115e-02
   4.49843258e-02  7.67189562e-02  4.17065732e-02 -4.12749052e-02
  -3.13801467e-02 -1.97537802e-02  1.14593450e-02  3.61787677e-02
  -1.47166913e-02 -9.14379209e-03  3.57639901e-02  1.57780815e-02
   6.33460134e-02  1.89911928e-02 -3.20959687e-02  3.20532806e-02
  -2.61794385e-02 -3.10053676e-02 -1.18741523e-02 -1.42941633e-02
   8.45301151e-02  3.36222425e-02 -2.67323554e-02 -5.75237870e-02
   1.32877957e-02  2.70220935e-02 -5.83584830e-02  1.12128451e-01
   5.76103367e-02  4.69709784e-02 -1.90091431e-02 -5.38131297e-02
  -6.41984027e-03 -4.06958684e-02 -2.20321100e-02  6.52245432e-02
   3.85496616e-02 -1.65550429e-02  4.21337485e-02 -1.34308711e-02
   5.03461137e-02  6.34605344e-03  1.87364370e-02 -5.21661825e-02
   6.89546093e-02  5.58554456e-02  9.04555619e-02  2.48142378e-03]
 [-5.78692965e-02  6.00157492e-02  3.46524715e-02  2.25029401e-02
  -2.79993638e-02  3.94428596e-02  1.47269979e-01  3.07301059e-02
   1.76710486e-01 -7.85267875e-02  2.04795852e-01  1.10162765e-01
  -1.69322565e-02 -4.23838831e-02 -1.45256132e-01 -8.42372328e-03
  -1.77839562e-01  2.89361849e-02  8.95304009e-02  1.02957927e-01
  -6.77717775e-02 -1.15741533e-03 -1.04936667e-01 -7.35259205e-02
   1.66443810e-01 -7.15986490e-02 -1.16317675e-01  1.10656746e-01
  -3.16725150e-02  3.22681852e-02 -2.63444167e-02  1.89783782e-01
   6.55800030e-02  2.03646094e-01  1.85710471e-02  1.13074787e-01
  -1.24942675e-01 -5.68180606e-02 -2.70113908e-02  4.87371981e-02
   3.75100859e-02 -1.49234399e-01 -5.67286089e-02 -1.27791688e-01
  -1.00063033e-01  6.99005648e-02 -2.03636467e-01  1.02570623e-01
  -1.13403857e-01  2.62518749e-02 -1.10522555e-02 -3.18523943e-02
  -1.01854809e-01 -1.40932620e-01  8.18253532e-02 -5.47737554e-02
  -1.02433398e-01  1.12665877e-01  1.86251462e-01  4.37707342e-02
   1.69493347e-01 -5.33218980e-02  2.17896789e-01  3.50091383e-02
  -2.44360976e-02  1.10534400e-01  2.06170440e-01 -1.35991722e-01
  -9.85966697e-02  8.92573819e-02 -2.05047414e-01 -4.66444679e-02
   8.16933438e-02 -5.03447503e-02 -9.91966426e-02  1.11395545e-01
   8.05742666e-02  8.01206008e-03  7.40615577e-02 -8.98637027e-02
  -6.86047822e-02 -8.90952628e-03 -4.41412069e-02  1.07502550e-01
  -2.51184534e-02 -1.05839781e-01  1.33396611e-01 -7.78030306e-02
  -2.45983481e-01  1.26682669e-01  1.29020989e-01 -8.68155658e-02
   2.15464495e-02 -1.76824719e-01 -4.40421030e-02 -7.68545195e-02
  -1.43520519e-01 -6.06262572e-02 -6.35056719e-02  1.77859828e-01
   7.18747303e-02 -7.10267872e-02 -3.98031920e-02  1.19315842e-02
  -2.12816373e-02 -1.50103241e-01 -1.30951330e-01  1.09926015e-01
   1.27528701e-03  1.04773551e-01 -9.60400701e-02  2.83401012e-02
  -9.18175057e-02 -1.00647174e-01 -5.25940284e-02 -7.57448226e-02
   3.54356393e-02 -6.38877898e-02 -2.11231299e-02  4.46261093e-02
   3.41877341e-02 -1.31246969e-01 -1.92007199e-01  9.49878246e-03
  -2.26179771e-02  5.19044921e-02  9.87699628e-03  6.68420282e-04]
 [ 7.52419084e-02  1.26034215e-01 -2.91901343e-02  7.22292811e-02
  -1.01323696e-02 -2.78623477e-02  1.19742848e-01  6.61684945e-02
   1.54372200e-01  3.50952372e-02  1.29050672e-01  1.17562346e-01
  -1.76202562e-02 -7.36556277e-02 -1.19309701e-01  9.61416308e-03
  -1.48044169e-01 -1.32307420e-02  1.82644323e-01  5.78226410e-02
  -1.69567820e-02  1.31348833e-01 -7.76709542e-02 -1.01970747e-01
   1.34362012e-01  1.68034919e-02 -4.14526947e-02  5.89611493e-02
  -6.55284226e-02 -7.77754486e-02  7.07487836e-02  6.63429946e-02
  -2.58740280e-02  1.42599732e-01  8.70591402e-02  5.30267060e-02
  -1.26218200e-01 -7.29418024e-02  5.96588627e-02  1.29697546e-01
   9.69463736e-02 -1.63664058e-01 -6.92710206e-02 -7.61606991e-02
   3.20488364e-02 -2.43990738e-02 -2.01966539e-01  1.55357480e-01
   8.46223906e-03 -3.94138545e-02 -9.41803753e-02  2.17646882e-02
  -1.09695457e-01 -1.06035940e-01 -6.65872842e-02 -5.30368313e-02
  -1.55924633e-01  2.04907954e-01  1.87468350e-01  5.88507876e-02
   8.89925510e-02  5.14979586e-02  1.68269619e-01 -1.17365224e-02
   6.63017482e-02  1.07600309e-01  9.70670655e-02 -1.54707760e-01
  -4.09097294e-04  1.39995873e-01 -1.82579517e-01  8.32861569e-03
   1.67559516e-02  1.56499371e-02 -5.69207110e-02  9.40783769e-02
  -4.11627023e-03  1.61888562e-02  1.15535455e-03 -7.94530511e-02
  -1.30827874e-01  5.74477278e-02 -6.12832978e-02  1.18551992e-01
   3.70402560e-02 -1.18393049e-01  7.29502290e-02 -5.37752286e-02
  -1.62280798e-01  1.24455661e-01  5.84555268e-02 -2.94823796e-02
   1.28138080e-01 -1.57300323e-01  7.18837827e-02  1.17592858e-02
  -5.91564626e-02 -4.80774194e-02 -4.98340167e-02  1.09691143e-01
   1.22427128e-01 -3.40481550e-02  2.90516095e-04 -1.16549181e-02
   4.18133028e-02 -1.28161892e-01 -1.28281355e-01  1.07213616e-01
   9.17812362e-02  1.41812339e-01 -1.12175077e-01  3.86871919e-02
  -2.37539560e-01 -1.16736926e-01  7.59107620e-02 -1.33084014e-01
  -8.43504667e-02 -7.54077062e-02  6.52518123e-02  2.58757919e-03
   7.27032870e-02 -1.77057266e-01 -2.55648762e-01  7.10210949e-02
   1.63469948e-02  4.50836159e-02  1.98513493e-02  1.04883919e-03]
 [ 6.06440604e-02  3.80772054e-02 -4.05120775e-02  1.96842309e-02
  -2.89030503e-02 -4.96188179e-02  1.93848878e-01 -4.13022004e-02
   5.21902069e-02 -8.51110518e-02  6.86167628e-02  2.07615644e-01
   9.66230854e-02 -3.82596231e-03 -3.25582363e-02  3.97301801e-02
  -1.21528596e-01 -8.69494155e-02  9.65362787e-02  1.87172573e-02
  -6.75009862e-02  1.79397509e-01 -5.13109751e-02 -7.77825937e-02
   1.99402869e-01  4.16095927e-02 -7.16183186e-02 -2.34058313e-02
  -3.17194723e-02  2.79193837e-02  2.08477825e-02  1.39054969e-01
  -6.24748587e-04  1.60166189e-01  6.67375773e-02 -6.98695555e-02
  -7.28127062e-02  1.19057074e-02 -4.19689827e-02 -3.90060619e-02
  -2.91828178e-02 -2.36848012e-01  7.50183463e-02 -9.84861851e-02
   3.10287159e-03 -1.06500313e-02 -1.98105231e-01  9.37015563e-02
  -1.68341231e-02 -9.04468074e-02  5.36600091e-02 -1.36025995e-01
  -7.16885030e-02 -8.76936391e-02  6.17019981e-02 -7.85130709e-02
  -1.88263729e-01  1.41370535e-01  1.54896989e-01  8.18303306e-05
   9.01621953e-02 -7.40504339e-02  1.75504237e-01  7.57488385e-02
   1.93760525e-02  1.69639196e-02  2.03748897e-01 -9.15082544e-02
  -4.93501760e-02  8.20925981e-02  1.11231253e-04 -5.10809571e-02
   1.34998307e-01 -7.95184895e-02 -6.06807284e-02  6.09797090e-02
   3.80945019e-02 -1.81447770e-02 -8.61135032e-03 -9.66037959e-02
  -3.40367630e-02 -5.00036255e-02  1.51945606e-01  9.11049768e-02
  -1.23855181e-01 -4.66751754e-02  3.19533683e-02  8.33562203e-03
   1.15049155e-02  1.34684041e-01  1.36121605e-02 -7.47218207e-02
   8.19155872e-02 -5.94504960e-02  3.07901949e-02 -2.36278120e-03
  -1.09745115e-01  3.95063385e-02 -1.58277398e-03 -6.71712831e-02
   1.18318714e-01  8.13789815e-02  1.25401482e-01  8.37207213e-02
   1.03292009e-02 -3.00513674e-02 -5.03302813e-02  1.30219936e-01
   4.82610427e-02  1.29035071e-01 -5.68838939e-02  6.52602166e-02
  -1.78276360e-01 -3.05385198e-02  2.73629427e-02 -4.33194935e-02
   1.74792148e-02  5.42996638e-02  1.22674685e-02  1.18090138e-02
   6.88057095e-02 -1.21664204e-01 -1.03558742e-01  4.01912965e-02
  -2.50262544e-02 -5.40686958e-02 -3.62505205e-02  7.14549944e-02]
 [-2.73772646e-02  3.55067290e-02  1.04572497e-01 -9.67947915e-02
  -8.24795589e-02 -2.03535669e-02  1.61639333e-01 -2.43934020e-02
   6.17312379e-02  2.27850098e-02  1.31966636e-01  4.16353233e-02
   8.58738720e-02 -4.57908697e-02 -1.21299990e-01 -3.75197418e-02
  -1.93127662e-01 -5.10025024e-02  2.07208633e-01  5.62479384e-02
  -2.63483133e-02  1.55207574e-01  3.03877052e-02 -9.96625125e-02
   1.25907108e-01  7.21788779e-02 -5.85535131e-02 -1.37603268e-01
   1.20362137e-02 -4.84779440e-02 -5.36042675e-02  5.96327186e-02
  -2.56744400e-02  1.89012513e-01  1.11191660e-01  7.40582868e-02
  -2.30475083e-01 -5.11480570e-02 -4.22568135e-02 -3.76631739e-03
   6.81996271e-02 -2.78850824e-01  8.16136301e-02  2.51198560e-02
  -1.52233551e-04 -1.39901147e-03 -2.64304161e-01  4.68369573e-02
   7.66307190e-02 -1.06858477e-01 -6.81237876e-02  6.93516433e-02
  -9.44562315e-04 -1.36908829e-01  1.92895383e-02  1.30762845e-01
  -1.13932423e-01  2.16620624e-01  1.15323126e-01  1.04314029e-01
   9.45082530e-02 -5.66090234e-02  1.62858352e-01  2.74491850e-02
   7.47327320e-03  1.22754313e-01  1.37558162e-01 -2.27245927e-01
   7.91160166e-02  1.25111535e-01 -8.51691961e-02 -5.85070178e-02
   1.51193097e-01 -3.30973417e-02 -2.86835432e-02  1.20039113e-01
   5.04711084e-02  7.57159740e-02 -1.14624858e-01 -1.35592088e-01
  -1.46055937e-01 -4.69261445e-02  4.35252115e-02  9.39284340e-02
  -1.43241853e-01 -1.41060874e-01  5.42558804e-02 -1.02265337e-02
   9.44507644e-02  6.73827082e-02  8.82610008e-02 -5.51947653e-02
   1.24801114e-01  1.01892516e-01  6.86079934e-02 -1.19336106e-01
  -1.09698415e-01  3.62485163e-02  3.09267286e-02  2.77376012e-03
   2.05260918e-01  8.97529274e-02  7.81704038e-02  6.55592233e-02
   2.41186633e-03 -1.12856284e-01 -1.53937444e-01  1.27254993e-01
  -4.98349220e-02  1.59738824e-01 -1.06042355e-01  8.26836284e-03
  -1.47813827e-01 -2.35354844e-02 -2.79259169e-04 -1.07402857e-02
   4.23947275e-02  2.42544375e-02 -8.13345909e-02  4.60642502e-02
   4.70206477e-02 -6.30626753e-02 -2.64486164e-01  2.82180519e-03
   1.43503780e-02 -4.36040722e-02  9.55863595e-02 -7.17914570e-03]
 [ 1.80769980e-01  9.34632272e-02  2.42744237e-01  3.89985219e-02
  -1.67518228e-01 -1.18868873e-02  1.54942617e-01 -3.19685079e-02
   1.87468588e-01 -9.58308205e-02  1.07439505e-02  6.71559665e-03
  -1.05571687e-01 -5.19781932e-02 -1.27174541e-01  3.96190807e-02
  -1.67605981e-01 -3.80978361e-02  1.52260497e-01  2.49972865e-02
   7.22464696e-02  1.03433430e-01  9.86956209e-02 -2.24707350e-01
  -4.41303216e-02 -7.55943209e-02  2.16480196e-02 -1.19587094e-01
   2.38963947e-01 -2.67435014e-01  2.42932756e-02 -5.32294661e-02
   8.48976374e-02  9.87937301e-02  1.93481743e-02  1.59438178e-01
  -4.76041920e-02  4.13232185e-02 -6.50441200e-02  3.12908925e-02
   1.19263686e-01 -9.85781252e-02  2.62590721e-02  6.79449737e-02
  -8.80867615e-02 -1.10823020e-01 -1.55015633e-01  3.60703431e-02
   1.20383315e-02 -9.57460999e-02 -1.08415015e-01  1.95173547e-01
   2.50844657e-03 -2.72085905e-01 -2.19463427e-02  1.18255675e-01
  -2.21895099e-01  2.56928235e-01  1.04683667e-01 -1.36542067e-01
   2.21512750e-01 -2.26712123e-01  1.96985304e-01 -2.39923820e-02
  -3.88939641e-02  1.00972831e-01  2.01157987e-01 -1.21788613e-01
  -1.70852497e-01  3.14836174e-01 -1.30597260e-02 -2.08473876e-02
  -4.11258228e-02 -2.42083162e-01 -3.81319411e-02  1.19549498e-01
   1.26484707e-01  1.72256872e-01  1.61815211e-02 -1.84197202e-01
  -7.26783127e-02 -4.80584204e-02  1.67948112e-01  4.90777791e-02
   3.10457665e-02 -9.97692421e-02  1.98097363e-01  1.24701709e-02
   1.13430820e-01  3.98810022e-02  6.66526183e-02 -4.70002815e-02
   9.42877010e-02  5.80734909e-02 -4.22039926e-02 -8.82762149e-02
  -1.42669693e-01 -3.76630314e-02  4.43382002e-02  9.31304395e-02
   1.31372288e-01  1.07451066e-01  1.56348497e-01  2.02696502e-01
  -9.77779403e-02 -4.71802019e-02 -1.56938344e-01  2.32636303e-01
   1.25473011e-02  1.43049896e-01  9.50274616e-03 -2.83934712e-01
  -1.53217420e-01  3.47032100e-02 -4.18285206e-02 -2.08905488e-02
   1.94706827e-01  2.81070452e-02 -6.77747279e-02  1.14045888e-02
   1.61136970e-01 -9.63242427e-02 -1.48842156e-01  5.33470772e-02
   6.96185306e-02  1.31949365e-01 -5.73473168e-04 -2.35092342e-01]
 [ 2.32038960e-01  1.03236169e-01  6.30874410e-02 -1.27027825e-01
  -9.86002386e-02  1.69748813e-02  1.79710016e-01  4.97522717e-03
   3.09686214e-01 -1.86344087e-01 -1.25634730e-01  3.78568284e-02
  -1.87470652e-02  1.07102571e-02 -1.74052641e-01 -6.48272932e-02
  -3.07434276e-02 -3.37739624e-02  2.31947354e-03  1.05886832e-01
   6.77391440e-02 -3.35268453e-02  1.14908203e-01 -9.35348719e-02
  -1.75631925e-01  8.93736929e-02  3.67048904e-02 -1.80012524e-01
   2.72741914e-01 -9.20695364e-02  2.11044401e-01  9.72710699e-02
   1.37247548e-01 -6.60182536e-02  1.39662996e-01  3.56992446e-02
   1.08224638e-01 -1.20183222e-01  1.31988153e-02 -1.53175946e-02
   3.31282556e-01 -7.09719071e-03 -2.19106134e-02  5.87112978e-02
   5.56775276e-03 -3.03958394e-02 -2.70883478e-02  6.17781058e-02
   4.23190556e-02 -2.07881272e-01 -8.36249441e-03  1.15315437e-01
   1.83440134e-01 -1.12074450e-01  8.86147991e-02 -1.58667155e-02
  -2.76136249e-01  3.38933885e-01  2.28741601e-01 -2.33126178e-01
   1.82589874e-01 -1.31621420e-01  3.28032345e-01 -1.31071255e-01
  -3.12252510e-02  3.18857878e-01  7.80819207e-02  5.05735278e-02
  -1.05331935e-01  2.45696560e-01  1.14544503e-01 -1.60348997e-01
   1.08421996e-01 -3.01799089e-01 -1.00870036e-01 -6.44823015e-02
   1.17762618e-01  1.89939752e-01 -2.48177443e-03 -2.08403185e-01
   4.77668047e-02 -1.60343829e-03  1.55133650e-01  7.34183472e-03
  -3.44316103e-02 -1.33696245e-02  6.80351853e-02 -6.07794635e-02
   4.25850786e-02  9.81815066e-03  7.18096346e-02 -2.54139490e-02
   4.84322235e-02  7.53364116e-02 -1.12561576e-01 -1.51735157e-01
  -2.33454593e-02 -1.15235373e-01  2.67885160e-02  1.73654497e-01
   9.99487638e-02  6.60446882e-02  1.84785873e-01  1.46659046e-01
  -1.35831371e-01 -1.13480374e-01 -2.68945754e-01  1.23800844e-01
  -1.25985220e-01  2.21211284e-01 -1.73808113e-01 -3.66175115e-01
  -4.90838699e-02  2.00144434e-03 -1.14124857e-01 -1.08199090e-01
   1.20372340e-01  2.14500427e-01 -1.22903869e-01 -3.77861112e-02
   2.53400236e-01 -1.45849615e-01 -1.68082282e-01  1.15661919e-01
   1.81010351e-01  1.86641663e-01  3.09369005e-02 -1.06668115e-01]
 [ 1.59011573e-01  2.69238532e-01  2.83398032e-01 -2.47785166e-01
  -8.31118226e-02 -7.78361708e-02  2.30540484e-01  8.64231661e-02
   3.86324406e-01 -1.27703443e-01 -7.75673836e-02  6.42302707e-02
  -5.99760003e-02 -2.02187121e-01 -1.70928404e-01  1.56908825e-01
  -1.96825564e-01 -2.50217654e-02  1.07805856e-01  1.15391456e-01
  -2.23607346e-02  4.84517813e-02  1.65950894e-01 -1.77008793e-01
   1.05783567e-02  1.11393690e-01 -1.41800672e-01  3.45471092e-02
   1.96298674e-01 -9.32086073e-03  1.43207580e-01  3.04689854e-02
  -2.96602920e-02  6.50464222e-02  9.05045494e-02  2.56834012e-02
  -1.34878650e-01 -1.96539611e-02 -4.69603948e-02  4.12151143e-02
   2.75120407e-01 -8.18739831e-02  6.47549555e-02 -1.44440398e-01
   5.78460023e-02  1.67468950e-01 -2.17197239e-01 -9.01779719e-03
  -6.85491264e-02 -1.73591688e-01 -8.68687313e-03 -2.28532515e-02
   8.34296495e-02 -2.01650962e-01  2.34182249e-03 -2.61913892e-02
  -3.05463165e-01  4.98874843e-01  3.51252437e-01 -1.24228649e-01
   2.59804249e-01 -9.45035443e-02  3.61097336e-01 -4.95829210e-02
  -2.56202929e-02  2.77293950e-01  2.59739935e-01 -2.28458866e-02
  -1.44122429e-02  1.80897281e-01  1.31372228e-01 -9.39188227e-02
   3.46987396e-01 -1.77323490e-01 -1.42050937e-01 -6.34249523e-02
   1.42355904e-01  1.55162767e-01 -9.14736614e-02 -2.39243001e-01
   4.04055826e-02  1.92453787e-02  1.54005781e-01 -6.75188936e-03
  -5.10985330e-02 -3.28438967e-01  1.68101132e-01 -6.94143400e-02
   6.51278123e-02  1.00891583e-01  6.34988695e-02 -2.22409606e-01
   1.64452344e-01  9.39215869e-02 -1.40382528e-01 -3.01589668e-01
  -8.82109255e-02 -1.27707481e-01 -1.68860573e-02  2.31230482e-01
   2.35229239e-01 -1.50475562e-01  4.81287425e-04  2.60960549e-01
  -2.57732898e-01 -1.14534155e-01 -3.33835542e-01  3.60555798e-01
  -1.11171000e-01  2.46121898e-01 -1.94249988e-01 -3.02070111e-01
  -1.01322696e-01 -1.46800742e-01  2.46077348e-02 -1.58700403e-02
  -1.48354545e-01  2.15520695e-01 -7.90791363e-02  3.96985933e-02
   2.78792202e-01 -1.21974483e-01 -1.48830563e-01  1.39656840e-02
   8.04610252e-02  5.27589433e-02  2.60011226e-01 -9.60113853e-02]
 [ 3.27380866e-01  3.91101032e-01  8.11968371e-02  1.56551022e-02
   1.58040598e-03  5.26810177e-02  1.16993271e-01 -7.80310854e-02
   2.74493575e-01 -1.44270897e-01  1.93732798e-01  2.79588073e-01
   1.08591229e-01  1.17737405e-01 -2.35279351e-01  1.50142685e-01
  -3.42319429e-01  1.12966478e-01  1.56662837e-01  1.31117612e-01
  -9.30819586e-02  2.88250655e-01  8.65287632e-02 -2.92847812e-01
   2.18059316e-01 -7.29242042e-02 -2.03718081e-01  1.37430221e-01
   7.54868612e-02  1.78958267e-01  1.54396996e-01  1.97379187e-01
  -8.59263018e-02  1.39061332e-01  1.07404128e-01  5.45832328e-02
  -1.84931770e-01 -1.45112038e-01 -7.76420981e-02  1.45356506e-01
   1.54370070e-01  2.58318745e-02  8.47347006e-02  3.50539796e-02
   2.26156320e-02 -4.92259637e-02 -9.93878692e-02 -3.25845703e-02
   4.55427021e-02 -1.65318787e-01  5.55101261e-02 -1.37436241e-01
   7.32072592e-02 -2.44382739e-01 -1.28960073e-01 -1.24730915e-01
  -2.03064352e-01  4.14886981e-01  2.64979780e-01 -5.12722880e-02
   1.56442672e-01 -4.21463996e-02  3.80253285e-01 -4.70602363e-02
   1.63243741e-01  2.96404600e-01  2.84351617e-01 -3.48646492e-01
   2.39929110e-01  6.63188696e-02 -6.23844215e-04 -1.37956932e-01
   1.14921458e-01 -2.24976372e-02 -9.66839418e-02 -1.90342441e-01
   2.04220533e-01  1.12364151e-01 -5.25400648e-03 -2.72166997e-01
  -1.07608564e-01  1.64116859e-01  2.22968861e-01  6.69499040e-02
  -7.37587828e-03 -2.73683786e-01  3.46256793e-02 -3.88429537e-02
  -7.08797500e-02  1.27851412e-01  2.15591341e-01 -8.20499882e-02
   2.30536699e-01 -2.97852196e-02  1.88450962e-01  1.20974816e-01
  -4.58324403e-02  1.56774610e-01 -3.59069444e-02  1.21879000e-02
   2.65876204e-01 -7.97584653e-02  1.39416799e-01  8.15667436e-02
   1.17115048e-03 -2.70159245e-01 -3.90094072e-02  2.06100047e-01
  -2.29234785e-01  1.38345584e-01  5.51607311e-02 -2.37553850e-01
  -1.66587889e-01 -2.68132269e-01  8.71166587e-02 -1.23085007e-01
   2.39870697e-02  2.08751649e-01 -8.98779035e-02  5.36120757e-02
   1.34444967e-01 -3.06547135e-01 -5.87118976e-03  3.67134102e-02
   1.89857334e-01  9.54447836e-02  4.27943736e-01 -4.31888141e-02]
 [ 3.85638215e-02  6.21301122e-02 -1.07158720e-01  1.59673080e-01
  -2.98204392e-01  3.81977893e-02 -1.33265898e-01  6.06381632e-02
  -5.83668314e-02  1.39539406e-01  4.93382275e-01  7.45863438e-01
   1.66116655e-01  1.97489232e-01 -5.53531237e-02  6.39762655e-02
  -1.65215313e-01  1.26907706e-01  2.54200667e-01 -1.12060346e-01
  -1.45650312e-01  1.91638604e-01  8.07530507e-02 -4.89659995e-01
   2.56928116e-01 -1.28625825e-01 -6.05288940e-03  2.38131642e-01
   6.41773045e-02 -1.34381294e-01  2.27286965e-01  3.42792794e-02
  -1.22185454e-01 -2.73679048e-01  2.02464927e-02 -1.14927061e-01
   1.11619093e-01  6.52698576e-02 -9.14272945e-03  1.28762737e-01
  -2.64954597e-01  1.37874410e-01 -8.21610987e-02  1.46475300e-01
  -3.70362289e-02  1.26292899e-01  2.67533123e-01 -6.63585439e-02
  -2.54303850e-02  3.24526846e-01  1.45843700e-01  1.51964635e-01
   1.61716282e-01 -2.55534679e-01 -3.23176622e-01  6.38908073e-02
   9.63096917e-02  5.74731231e-02  1.57806128e-01  1.89324975e-01
  -3.13294381e-01  1.52097911e-01  8.50391984e-02  2.65661538e-01
   1.19884260e-01 -2.53825277e-01 -1.72108337e-01 -2.53203392e-01
   6.63387328e-02 -5.73123321e-02 -1.67115912e-01  7.66045302e-02
  -3.01182508e-01  2.21274316e-01 -7.30789751e-02 -5.12467474e-02
   1.42143958e-03  9.26916376e-02  3.17576230e-02  5.70350513e-02
  -5.67980297e-02  1.22052416e-01  3.28221679e-01  6.53016418e-02
   2.70788521e-02  1.74845919e-01 -7.30134845e-02  2.08847802e-02
  -1.87420860e-01 -2.03471094e-01 -2.04705030e-01 -1.06863804e-01
   1.88775271e-01 -4.84230146e-02  4.21098508e-02  4.15139467e-01
   1.05051875e-01  1.55337006e-01 -5.59989624e-02 -2.97975298e-02
  -5.39090820e-02  2.86395669e-01  3.50013644e-01  7.54872453e-04
  -3.39977071e-02 -1.54716745e-01  9.95432884e-02 -3.61680500e-02
   2.20668226e-01  3.21401596e-01  1.48646370e-01 -2.80574802e-02
  -1.21366091e-01 -1.90167934e-01  1.62278473e-01  2.62199377e-04
   3.00592005e-01  8.63650255e-03  2.71746933e-01 -3.71938162e-02
  -1.91836029e-01 -2.82012373e-01  2.04738632e-01  5.42455390e-02
   3.88622433e-01 -1.33342505e-01  3.59747529e-01 -1.67398170e-01]
 [-1.34809107e-01  3.78299765e-02  7.32744932e-02 -3.97475600e-01
  -2.07352579e-01 -1.25874966e-01  4.46002871e-01  6.92932159e-02
   2.40080357e-01  2.40578815e-01  3.57100278e-01  6.88717961e-01
   2.57445097e-01  1.43497720e-01 -2.22133264e-01 -2.61136778e-02
  -3.21981549e-01 -6.37467802e-02  2.55878687e-01  3.94627333e-01
  -1.36846349e-01  2.32023701e-01 -2.90541142e-01 -2.11174518e-01
   3.17577451e-01  7.09727928e-02  1.46774113e-01  1.38766319e-01
   3.67112190e-01  9.85037833e-02  2.70624042e-01 -1.08647615e-01
   1.47234261e-01 -2.70491153e-01  3.33037749e-02 -3.12055886e-01
  -4.30680513e-02 -4.37466539e-02  4.43061888e-02  1.28081754e-01
  -2.66836017e-01 -4.46837366e-01 -7.99946040e-02 -5.63553758e-02
  -7.87487999e-02  3.46348107e-01 -4.62802798e-02 -2.45738253e-02
   2.75468677e-02  2.55601525e-01  7.64486613e-03 -3.33328038e-01
  -5.27197979e-02  8.28166399e-03 -1.54051006e-01 -2.31644765e-01
  -4.53295052e-01  5.28561831e-01  1.78861812e-01 -9.40012112e-02
  -1.45923778e-01  3.45648408e-01  1.88854218e-01  1.84421435e-01
   1.55876398e-01 -2.19521746e-01  1.21389084e-01 -2.01643869e-01
   6.26771823e-02  1.81747898e-01 -1.49452329e-01  6.69635832e-02
  -1.77691624e-01  2.43079707e-01 -4.24967334e-02 -1.20644562e-03
   1.90864295e-01  2.11206928e-01  1.64720669e-01  5.40331826e-02
  -1.75187662e-01  7.87642151e-02  3.82457584e-01  1.12765143e-02
  -5.47701716e-02 -2.93629527e-01  2.79228240e-01 -5.68050928e-02
  -3.04039717e-01 -3.57398726e-02 -1.84394903e-02 -2.24641159e-01
   2.59058237e-01 -4.73862261e-01 -3.83021683e-02  3.83517981e-01
  -1.96521267e-01 -1.77861646e-01 -3.26955207e-02  1.86168298e-01
   2.56497025e-01 -2.08550215e-01  4.01349574e-01  3.03541273e-01
   1.48344323e-01 -3.12683791e-01 -1.82562426e-01  1.68042108e-01
   5.80314733e-02  3.94822061e-01  3.66811343e-02  2.13364571e-01
  -8.47817287e-02 -5.35858832e-02 -1.97157025e-01 -1.53471693e-01
   6.26953244e-02  2.89100438e-01  2.03741714e-01  5.09126186e-02
  -3.33856009e-02 -3.19802612e-02  9.23630074e-02  2.84305476e-02
   2.47136384e-01 -1.96030483e-01  2.44961902e-01 -1.74575776e-01]
 [ 3.28888804e-01  2.44177118e-01  3.00674468e-01 -4.81357694e-01
  -8.49851146e-02  1.96064822e-02  2.54133373e-01 -1.02805302e-01
   2.63382465e-01  1.24770112e-01  1.67398751e-01  4.76521879e-01
   2.95186732e-02 -1.55446723e-01 -2.08702460e-01 -4.41545397e-02
  -6.59518018e-02 -1.22468874e-01 -4.95540425e-02  3.05793375e-01
  -5.07232808e-02 -3.70641723e-02 -2.18489051e-01 -2.04079255e-01
   3.99981067e-02  5.21192439e-02  2.45279863e-01  4.09139320e-02
   2.40638360e-01  1.21052749e-01  2.33149305e-01 -1.14818424e-01
   5.47284447e-02 -7.10280240e-02  1.55514389e-01 -1.46326944e-01
   1.72434703e-01 -8.75009298e-02 -4.91474457e-02 -3.49827372e-02
  -1.64853990e-01 -6.38239920e-01 -4.06470671e-02  1.19633111e-03
   1.15620188e-01  2.69590735e-01 -1.53765425e-01 -3.28473747e-02
  -9.10884514e-02  1.92094043e-01 -1.22486696e-01 -1.90313533e-01
  -1.88291267e-01  1.13504687e-02  2.36809179e-01 -2.03507781e-01
  -3.42260867e-01  2.97770709e-01  1.36254892e-01 -3.10957670e-01
   4.97009307e-02  1.63636595e-01  1.20841339e-01 -1.65690809e-01
   1.35147534e-02  1.38544217e-01  1.99372783e-01 -2.14238450e-01
   1.83804855e-01  1.30593777e-01 -1.39609262e-01  1.90335110e-01
   9.75277722e-02 -1.31947458e-01 -4.09814436e-03 -2.97400177e-01
   2.99775928e-01  1.16180621e-01  1.26881763e-01 -2.09150493e-01
   2.08929610e-02  9.84588489e-02  3.13791722e-01 -1.81135256e-02
  -1.00484796e-01 -3.01494479e-01  1.80690125e-01  1.18437121e-02
  -4.07191932e-01  2.58816421e-01  1.18223511e-01  4.05348130e-02
   2.36899391e-01 -3.20578635e-01  1.22550897e-01  6.10776991e-02
   4.86126617e-02 -1.29015818e-01 -1.35123357e-02  3.51540923e-01
   2.62671411e-01 -1.49255708e-01  3.49359035e-01  2.93813914e-01
   1.97441682e-01 -2.63153166e-01 -9.66800153e-02  2.95518070e-01
  -7.66440704e-02  1.17042340e-01 -6.71832785e-02 -1.11481816e-01
  -7.56032020e-02 -4.68118787e-02 -7.51416683e-02 -1.92521736e-01
  -1.46778390e-01  3.63290936e-01  1.37831271e-01  1.12259604e-01
   1.36758670e-01 -1.88803613e-01  1.53453767e-01 -5.24460822e-02
   2.06885189e-01  1.04894847e-01  2.43376084e-02  2.62457073e-01]
 [ 4.17343169e-01  1.20034270e-01  2.58656353e-01 -4.62057680e-01
   1.08736552e-01  1.35409296e-01  1.51630059e-01 -1.22708991e-01
   3.03467661e-01 -2.00930715e-01  1.94005147e-01  3.69181097e-01
   1.19115420e-01 -1.57721728e-01 -2.18212634e-01  9.82290227e-03
  -1.89581931e-01 -1.41846299e-01 -1.47036672e-01  1.80855170e-01
   7.36153498e-03  1.95291229e-02 -1.44081905e-01 -2.10722029e-01
  -4.80250642e-02  3.19825001e-02  2.23138243e-01  6.81467503e-02
   1.46943331e-01  1.09791666e-01  1.48925304e-01  8.95698965e-02
   3.24269421e-02  5.02145179e-02  9.49993581e-02  2.98532806e-02
  -4.08100337e-03 -3.49401794e-02 -8.37509260e-02 -1.02177998e-02
   1.52765870e-01 -4.41041380e-01  3.62398103e-02 -9.29919407e-02
   2.49063713e-03  6.13939483e-04 -2.15085819e-01 -2.75252927e-02
  -7.35116079e-02  3.94514352e-02 -6.25817925e-02 -7.89689422e-02
  -2.01435044e-01 -2.11266689e-02  3.11542720e-01 -9.88520235e-02
  -3.23214084e-01  4.09252465e-01  2.64409214e-01 -2.25486234e-01
   1.16974890e-01 -1.28671199e-01  2.27283224e-01 -1.42780557e-01
  -2.39628609e-02  3.72891575e-01  4.32144076e-01 -2.71479011e-01
  -5.77244014e-02  3.05190653e-01 -7.81798065e-02  4.75968122e-02
   3.30400020e-01 -4.08523262e-01 -4.74230461e-02 -9.10683200e-02
   2.03279853e-01 -2.21537519e-03  4.74525839e-02 -2.24352777e-01
   3.89577188e-02  4.85502332e-02  1.46697417e-01 -6.16966933e-02
   3.50497216e-02 -2.66905278e-01  6.00649230e-02 -2.79793795e-03
  -3.32733184e-01  2.28807718e-01  1.63519666e-01  3.71681415e-02
   1.52269617e-01 -4.62061651e-02  2.14967117e-01 -5.47810607e-02
   6.46404549e-02 -1.56237602e-01  1.95000377e-02  1.91620514e-01
   3.38432103e-01 -1.96494266e-01  2.26807937e-01  2.37726599e-01
   6.63775876e-02 -1.80799872e-01 -1.30524352e-01  3.16124856e-01
  -1.08145334e-01  1.58608884e-01 -4.09443304e-02 -1.08039856e-01
  -5.80512621e-02 -4.65132482e-02 -8.99325833e-02 -2.22047821e-01
  -5.42543791e-02  1.88912183e-01 -2.57015944e-01  5.36534190e-02
   2.82066107e-01 -8.00587535e-02 -5.19467853e-02 -1.40511706e-01
   8.62273201e-02  2.22357810e-01 -6.78345859e-02  2.12385431e-01]
 [ 3.54839698e-03  1.15453988e-01  1.75100833e-01 -2.26299450e-01
   7.81336986e-03 -1.11978538e-01  3.78646165e-01  9.17673931e-02
   3.98331106e-01 -8.19532648e-02  2.11201251e-01  1.55569017e-01
   2.62084361e-02 -9.97080207e-02 -6.83420673e-02 -6.52918816e-02
  -1.83395654e-01 -1.07520670e-01  1.32178530e-01 -4.80748378e-02
   1.05632329e-02  6.77669346e-02  1.26106381e-01 -2.10352346e-01
   1.27346650e-01 -6.03839308e-02 -5.32463891e-03  7.56980851e-02
  -2.27168724e-02  7.06797987e-02 -1.18019488e-02  2.29952365e-01
   1.68612003e-01  3.07639986e-01  2.53830731e-01  1.68279961e-01
  -1.22290500e-01  3.45190950e-02 -3.29774842e-02 -3.84819470e-02
   3.35785329e-01 -3.32845896e-01  2.05978770e-02 -9.14307609e-02
  -5.19630592e-03  5.17552085e-02 -2.10021496e-01  1.00282423e-01
   1.46555141e-01 -5.52223697e-02 -5.32083549e-02  1.14757307e-01
  -6.77412748e-02 -1.58569410e-01 -1.30606636e-01  4.93120179e-02
  -2.58754015e-01  3.54343891e-01  6.67395219e-02 -1.19030237e-01
   2.77155071e-01 -1.49061278e-01  1.10513359e-01 -1.40935540e-01
  -1.52048826e-01  1.11472316e-01  3.67687315e-01 -1.59706086e-01
  -1.28199771e-01  5.44590652e-02 -1.25854298e-01 -2.94958539e-02
   2.57801265e-01 -2.31589511e-01 -9.48355570e-02  9.93931442e-02
   1.54315243e-02  1.65112182e-01 -2.89965272e-02 -3.78010422e-01
   9.33479965e-02  3.12607095e-04  4.40555029e-02 -5.41117489e-02
   3.73161286e-02 -1.92393720e-01  2.05278873e-01  3.62395006e-03
  -2.13155031e-01  2.33582824e-01  3.33502889e-01 -9.79566202e-02
   3.27406436e-01  1.52177751e-01 -8.27243924e-02 -1.23941287e-01
  -2.23120645e-01  3.67206559e-02 -2.42094025e-02  1.09903201e-01
   2.04746589e-01 -1.67347178e-01  4.24307846e-02  4.18827087e-02
  -2.44338840e-01 -1.65062428e-01 -2.03880206e-01  2.04560414e-01
   1.34698525e-02  2.15931833e-01 -7.14911446e-02  1.93757266e-01
  -1.32147685e-01  5.58227242e-04  1.98831726e-02 -1.17704742e-01
  -1.43204153e-01 -3.94396111e-02 -3.04418262e-02  1.17078438e-01
   3.36648554e-01 -7.13489726e-02 -1.36954322e-01 -1.25774026e-01
  -4.50521745e-02 -1.37123850e-03  2.63502717e-01 -1.84260339e-01]
 [-8.94207042e-03  1.07736103e-01  1.49099976e-01 -1.36830553e-01
  -9.15104598e-02 -1.73287362e-01  3.07283729e-01  7.83530027e-02
   2.79783785e-01 -1.32436275e-01  2.28679687e-01  9.42113698e-02
   7.25319535e-02 -1.80183217e-01 -1.56479701e-01 -1.12989102e-03
  -2.88384050e-01  1.55343050e-02  1.50329068e-01  6.61782473e-02
   1.05239311e-02  3.28122042e-02  7.23698586e-02 -2.23861530e-01
   1.32350445e-01 -6.52977377e-02 -8.94026980e-02 -3.17100286e-02
  -4.87384805e-03  1.24132074e-01  4.07212675e-02  1.84813872e-01
   1.87069163e-01  1.22825556e-01  1.51815683e-01  7.69692734e-02
  -2.94638097e-01 -3.99318561e-02  2.26424281e-02 -1.09109811e-01
